0,1,2,3,4,5,6,7,8,9,10,11,12,13,14,15,16,17,18,19,20,21,22,23,24,25,26,27,28,29,30,31,32,33,34,35,36,37,38,39,40,41,42,43,44,45,46,47,48,49,50,51,52,53,54,55,56,57,58,59,60,61,62,63,64,65,66,67,68,69,70,71,72,73,74,75,76,77,78,79,80,81,82,83,84,85,86,87,88,89,90,91,92,93,94,95,96,97,98,99,100,101,102,103,104,105,106,107,108,109,110,111,112,113,114,115,116,117,118,119,120,121,122,123,124,125,126,127,128,129,130,131,132,133,134,135,136,137,138,139,140,141,142,143,144,145,146,147,148,149,150,151,152,153,154,155,156,157,158,159,160,161,162,163,164,165,166,167,168,169,170,171,172,173,174,175,176,177,178,179,180,181,182,183,184,185,186,187,188,189,190,191,192,193,194,195,196,197,198,199,200,201,202,203,204,205,206,207,208,209,210,211,212,213,214,215,216,217,218,219,220,221,222,223,224,225,226,227,228,229,230,231,232,233,234,235,236,237,238,239,240,241,242,243,244,245,246,247,248,249,250,251,252,253,254,255,256,257,258,259,260,261,262,263,264,265,266,267,268,269,270,271,272,273,274,275,276,277,278,279,280,281,282,283,284,285,286,287,288,289,290,291,292,293,294,295,296,297,298,299
2.907991847678204e-05,-2.8711972390738083e-05,0.0001385895629937295,-8.112415116556804e-05,-5.534095544135198e-05,0.00017064756684703752,0.0001554782866151072,-9.407032575836638e-05,-8.723060091142543e-05,2.8569593268912286e-06,3.326062505948357e-05,5.850215529790148e-07,-9.831743955146521e-05,-3.4644412153284065e-05,0.00011045004930565483,-6.874009523016866e-05,-9.064804180525243e-05,-0.0001258547963516321,-1.5142359188757837e-06,-4.82746290799696e-05,-8.851689926814288e-06,3.848414053209126e-06,4.057250407640822e-05,-3.521111102600116e-05,2.68379517365247e-06,-6.244658288778737e-05,-0.00011994917440460995,-2.2156877093948424e-05,-4.999717930331826e-06,8.498826719005592e-05,0.0001366971482639201,2.071452581731137e-05,-3.996610757894814e-06,1.020511263050139e-05,-0.000125938568089623,2.2972759325057268e-05,-4.49711260444019e-05,0.00020310812396928668,-1.4192461094353348e-05,-0.00013265777124615852,-1.7229867808055133e-06,1.970682933460921e-05,3.420699431444518e-05,3.948333187508979e-05,-4.531910872174194e-05,1.7674375158094335e-05,-1.1220578016946092e-05,2.4535460397601128e-05,6.304039789029048e-05,-0.00012385570926198852,1.562166289659217e-05,0.0001068013116309885,-5.984562449157238e-05,-0.00015348774672929721,-6.289039174589561e-05,0.0001628938116482459,-0.0001077002307283692,-0.00014225294580683112,5.214829434407875e-05,0.00020677674910984933,-3.59936457243748e-05,-0.00019011283438885584,-8.741797137190588e-05,-1.7905462300404906e-05,-3.065315104322508e-05,5.6594531088194344e-05,5.692779132004944e-05,-7.788014409015886e-05,-3.232893504900858e-05,3.862141898025584e-05,-0.00013902809587307274,-4.817489957531507e-05,-1.77322217496112e-05,8.989170237327926e-05,1.8059239664580673e-05,1.989850716199726e-06,0.0001233641778526362,-0.00018566321523394436,0.00011076756470629334,-0.0001647325734666083,-0.0001042169214997557,-0.0001675943422014825,1.3581684470409527e-06,-0.00011825247747765388,1.0478710464667529e-05,-4.026968599646352e-05,-0.00010190449393121526,6.18199301243294e-05,0.0001098587381420657,-4.924965833197348e-05,-4.0018025174504146e-05,-2.3028227587928995e-05,0.00012087995128240436,-9.982704250433017e-05,-5.034780042478815e-05,2.5997978809755296e-05,-5.41477493243292e-06,-5.719192267861217e-05,-0.00010406001820228994,-2.428635889373254e-05,0.00017674877017270774,-0.0001966157360584475,3.8316512359415356e-05,6.806694727856666e-07,0.0001244716258952394,-8.35468563309405e-05,-5.8243307194061344e-05,0.00015855961828492582,3.3093144338636193e-05,-3.5578141250880435e-05,7.668477155675646e-05,0.00014339642439153977,4.437961979419924e-05,-5.576207513513509e-05,1.5834212263143854e-05,-1.683060690993443e-05,0.00011497190098452847,-6.63216724205995e-05,1.2079352018190548e-05,-0.00010908158219535835,2.8793384444725234e-05,-0.00016321320981660392,5.058977876615245e-05,0.00010094077515532263,-0.00017124166333815083,0.00010200833003182197,-0.00014307806668512058,3.986497176811099e-05,7.764923793729395e-06,-2.8126465622335672e-05,-0.00019586560301831923,-7.879191434767563e-05,-0.00010541252527218603,4.37554954260122e-05,0.0001608075817784993,-4.3977656787319575e-06,4.503925811150111e-05,-0.00022248031746130437,-0.00018658780754776672,7.48609090805985e-05,2.83359840977937e-05,6.025147740729153e-05,8.469760359730572e-06,-0.00017236130952369422,2.7051763026975095e-05,5.92075266467873e-05,7.543374317720009e-05,6.549327827087836e-05,-2.3690230591455474e-05,-1.3020282494835556e-05,6.092575222282903e-05,0.00012109154340578243,-0.00012418289406923577,4.274968887330033e-06,-0.00010343937856305274,9.672134910942987e-05,6.115787982707843e-06,0.00016464829968754202,0.00017191600090882275,0.00011965134763158858,-3.282473062427016e-05,1.389522003591992e-05,5.99886043346487e-05,3.4866525311372243e-06,7.050994281598832e-05,5.847948159498628e-06,-0.00010127518726221751,7.380697479675291e-05,0.00010090530213346938,-9.160560921372962e-05,1.5539022570010275e-05,-0.00019563118985388428,-6.403581573977135e-05,-9.419603156857193e-05,5.407245225796942e-05,-0.00010343017220293405,-4.797497240360826e-06,0.00015588176756864414,6.681207378278486e-05,4.854134431298007e-05,-1.2539646377263125e-05,-7.30806805222528e-05,-2.1116358766448684e-05,-0.00010759920951386448,1.3091557775624096e-05,0.00012033313032588921,-0.00010523721448407741,4.136027610002202e-05,-2.351884904783219e-05,2.994074463913421e-05,-9.435433366888901e-05,-3.979142866228358e-05,7.90454687376041e-05,-0.00012994444568903418,9.733190017868765e-05,-4.169098247075453e-06,9.627441613702103e-06,0.00019203859119443223,-2.246625444968231e-05,-5.1965980674140155e-05,0.00013453568317345344,-2.209969170507975e-05,-6.722493344568647e-05,6.15434801147785e-05,4.529066427494399e-05,0.00015124681885936297,1.3314273019204848e-05,-4.69908191007562e-05,-2.17563219848671e-05,6.757295523129869e-05,-2.765551835182123e-05,5.270692054182291e-05,2.149455940525513e-05,0.00015196892491076142,0.00020628557467716746,0.0001534131442895159,5.411871097749099e-05,-0.00010338710217183689,-2.2295384042081423e-05,5.712419988412876e-05,2.7430586669652257e-05,-0.00015654918024665676,-0.00012450991198420525,0.00010115752593264915,1.8590591935208067e-05,1.5844478184590116e-05,-2.0519222744042054e-05,-9.910756853059866e-05,2.872651930374559e-05,2.13175108001451e-05,3.772086165554356e-05,-9.549067908665165e-05,1.108215656131506e-05,-3.34949218085967e-05,1.2442993465811014e-05,3.0316114134620875e-05,7.49767923480249e-05,9.293815674027428e-05,-1.7311576812062413e-05,-0.00015554841957055032,-0.00015684798199799843,0.00019930581765947863,-3.196683246642351e-05,-1.5442343283211812e-05,6.580672834388679e-05,-1.5338489902205765e-05,-0.00017119297990575433,-3.4386070183245465e-05,8.190522385120858e-05,-4.60029041278176e-05,-1.6149548173416406e-05,0.0002016315993387252,2.7227478767599678e-05,0.0001099836990761105,-0.00014536243907059543,-9.073992259800434e-06,2.4399247195106e-05,-8.207371138269082e-06,-0.0002143980163964443,-1.209913648381189e-05,-0.00011273838481429266,-1.5927180356811732e-06,8.404935761063825e-05,-6.301172470557503e-05,-6.268317656576983e-05,4.7105517296586186e-05,-2.5432156689930707e-05,0.0001411482662661001,-7.26014950487297e-05,-3.397801538085332e-05,-8.072376294876449e-05,-0.00020822071383008733,8.907925803214312e-05,-2.008639057748951e-06,8.92934731382411e-05,0.00014094998005020898,7.911289912954089e-05,5.3530457080341876e-05,0.00010900654524448328,0.00013626399231725372,0.00013871790724806488,-6.270023914112244e-05,-1.0832300176844e-05,-6.06877074460499e-05,-7.108259524102323e-05,9.416020475327969e-06,0.00014714561257278547,-8.788210834609345e-05,-9.80518598225899e-05,-0.00016810351280582836,-9.729234079713933e-05,5.231469367572572e-05,0.00010713931305872393,-6.859136192360893e-07,1.7247475625481457e-05,-4.14433452533558e-06,2.4580367607995868e-05,8.671527939441148e-05,-8.56308261063532e-05,-0.0001261489996977616
0.0,0.0,0.0,0.0,0.0,0.0,0.0,0.0,0.0,0.0,0.0,0.0,0.0,0.0,0.0,0.0,0.0,0.0,0.0,0.0,0.0,0.0,0.0,0.0,0.0,0.0,0.0,0.0,0.0,0.0,0.0,0.0,0.0,0.0,0.0,0.0,0.0,0.0,0.0,0.0,0.0,0.0,0.0,0.0,0.0,0.0,0.0,0.0,0.0,0.0,0.0,0.0,0.0,0.0,0.0,0.0,0.0,0.0,0.0,0.0,0.0,0.0,0.0,0.0,0.0,0.0,0.0,0.0,0.0,0.0,0.0,0.0,0.0,0.0,0.0,0.0,0.0,0.0,0.0,0.0,0.0,0.0,0.0,0.0,0.0,0.0,0.0,0.0,0.0,0.0,0.0,0.0,0.0,0.0,0.0,0.0,0.0,0.0,0.0,0.0,0.0,0.0,0.0,0.0,0.0,0.0,0.0,0.0,0.0,0.0,0.0,0.0,0.0,0.0,0.0,0.0,0.0,0.0,0.0,0.0,0.0,0.0,0.0,0.0,0.0,0.0,0.0,0.0,0.0,0.0,0.0,0.0,0.0,0.0,0.0,0.0,0.0,0.0,0.0,0.0,0.0,0.0,0.0,0.0,0.0,0.0,0.0,0.0,0.0,0.0,0.0,0.0,0.0,0.0,0.0,0.0,0.0,0.0,0.0,0.0,0.0,0.0,0.0,0.0,0.0,0.0,0.0,0.0,0.0,0.0,0.0,0.0,0.0,0.0,0.0,0.0,0.0,0.0,0.0,0.0,0.0,0.0,0.0,0.0,0.0,0.0,0.0,0.0,0.0,0.0,0.0,0.0,0.0,0.0,0.0,0.0,0.0,0.0,0.0,0.0,0.0,0.0,0.0,0.0,0.0,0.0,0.0,0.0,0.0,0.0,0.0,0.0,0.0,0.0,0.0,0.0,0.0,0.0,0.0,0.0,0.0,0.0,0.0,0.0,0.0,0.0,0.0,0.0,0.0,0.0,0.0,0.0,0.0,0.0,0.0,0.0,0.0,0.0,0.0,0.0,0.0,0.0,0.0,0.0,0.0,0.0,0.0,0.0,0.0,0.0,0.0,0.0,0.0,0.0,0.0,0.0,0.0,0.0,0.0,0.0,0.0,0.0,0.0,0.0,0.0,0.0,0.0,0.0,0.0,0.0,0.0,0.0,0.0,0.0,0.0,0.0,0.0,0.0,0.0,0.0,0.0,0.0,0.0,0.0,0.0,0.0,0.0,0.0,0.0,0.0,0.0,0.0,0.0,0.0,0.0,0.0,0.0,0.0,0.0,0.0
0.0,0.0,0.0,0.0,0.0,0.0,0.0,0.0,0.0,0.0,0.0,0.0,0.0,0.0,0.0,0.0,0.0,0.0,0.0,0.0,0.0,0.0,0.0,0.0,0.0,0.0,0.0,0.0,0.0,0.0,0.0,0.0,0.0,0.0,0.0,0.0,0.0,0.0,0.0,0.0,0.0,0.0,0.0,0.0,0.0,0.0,0.0,0.0,0.0,0.0,0.0,0.0,0.0,0.0,0.0,0.0,0.0,0.0,0.0,0.0,0.0,0.0,0.0,0.0,0.0,0.0,0.0,0.0,0.0,0.0,0.0,0.0,0.0,0.0,0.0,0.0,0.0,0.0,0.0,0.0,0.0,0.0,0.0,0.0,0.0,0.0,0.0,0.0,0.0,0.0,0.0,0.0,0.0,0.0,0.0,0.0,0.0,0.0,0.0,0.0,0.0,0.0,0.0,0.0,0.0,0.0,0.0,0.0,0.0,0.0,0.0,0.0,0.0,0.0,0.0,0.0,0.0,0.0,0.0,0.0,0.0,0.0,0.0,0.0,0.0,0.0,0.0,0.0,0.0,0.0,0.0,0.0,0.0,0.0,0.0,0.0,0.0,0.0,0.0,0.0,0.0,0.0,0.0,0.0,0.0,0.0,0.0,0.0,0.0,0.0,0.0,0.0,0.0,0.0,0.0,0.0,0.0,0.0,0.0,0.0,0.0,0.0,0.0,0.0,0.0,0.0,0.0,0.0,0.0,0.0,0.0,0.0,0.0,0.0,0.0,0.0,0.0,0.0,0.0,0.0,0.0,0.0,0.0,0.0,0.0,0.0,0.0,0.0,0.0,0.0,0.0,0.0,0.0,0.0,0.0,0.0,0.0,0.0,0.0,0.0,0.0,0.0,0.0,0.0,0.0,0.0,0.0,0.0,0.0,0.0,0.0,0.0,0.0,0.0,0.0,0.0,0.0,0.0,0.0,0.0,0.0,0.0,0.0,0.0,0.0,0.0,0.0,0.0,0.0,0.0,0.0,0.0,0.0,0.0,0.0,0.0,0.0,0.0,0.0,0.0,0.0,0.0,0.0,0.0,0.0,0.0,0.0,0.0,0.0,0.0,0.0,0.0,0.0,0.0,0.0,0.0,0.0,0.0,0.0,0.0,0.0,0.0,0.0,0.0,0.0,0.0,0.0,0.0,0.0,0.0,0.0,0.0,0.0,0.0,0.0,0.0,0.0,0.0,0.0,0.0,0.0,0.0,0.0,0.0,0.0,0.0,0.0,0.0,0.0,0.0,0.0,0.0,0.0,0.0,0.0,0.0,0.0,0.0,0.0,0.0
0.00010652469791239128,-1.6772512026363984e-05,-0.00016148763825185597,0.00012701161904260516,-0.00016727190813980997,0.00010568118159426376,-0.00026781074120663106,-6.587745156139135e-05,-0.00028861858299933374,0.00015805837756488472,-0.00023618659179192036,3.3857853850349784e-05,-7.37051377655007e-05,7.850051042623818e-05,0.00011843682295875624,-0.0001749223010847345,-8.792646258370951e-05,0.00014090185868553817,-0.00029550676117651165,0.0001972498866962269,-0.00022438149608206004,-0.00021364224085118622,-4.7545083361910656e-05,5.925074947299436e-05,4.1162762499880046e-05,4.446507591637783e-05,1.4687035218230449e-05,-5.7040648243855685e-05,-8.212526881834492e-05,-2.9193066438892856e-05,0.00014275081048253924,-6.703833059873432e-05,-2.5472671040915884e-05,-4.0339982660952955e-05,4.030761556350626e-05,0.00022526881366502494,-0.000101180536148604,-0.0001845581573434174,0.0001424116489943117,7.074115274008363e-05,5.044333738624118e-05,0.00010774979455163702,-0.0001478960330132395,-0.0002396660129306838,0.00015153498679865152,0.0002629088412504643,2.1072759409435093e-05,8.313175931107253e-05,0.000211142425541766,-0.0001190242255688645,0.00019223721756134182,-2.001801476581022e-05,4.634523793356493e-05,0.00015259746578522027,0.00021725925034843385,-9.53336802922422e-06,3.878279312630184e-05,2.831328492902685e-05,0.0001320179144386202,-1.1851681847474538e-05,-0.00011889530287589878,5.631110252579674e-05,-7.119023211998865e-05,-9.66872539720498e-05,0.0001387647062074393,-0.00032761303009465337,1.3248184586700518e-05,3.540516991051845e-05,9.665301331551746e-05,0.00014742826169822365,4.552295820303698e-07,0.0003092896949965507,-3.229301728424616e-05,-0.00010484408994670957,-0.00012516950664576143,-0.00018790001922752708,-0.0002373386814724654,3.6950692447135225e-05,0.0001618768146727234,0.00011142355651827529,4.308230199967511e-05,0.00023246784985531121,8.160097058862448e-05,6.623192166443914e-05,-7.387687219306827e-05,-2.612576099636499e-05,-3.5795761505141854e-05,-8.14071245258674e-06,-9.528969530947506e-05,7.091653969837353e-05,9.730148121889215e-06,0.00023524227435700595,-4.658758552977815e-05,-3.4067852539010346e-05,-7.50795952626504e-05,-8.429608715232462e-05,-4.393258859636262e-05,-6.553788989549503e-05,1.9097014956059866e-05,-0.00011536372767295688,-0.00010060948989121243,-0.00026687010540626943,-0.00017461564857512712,9.04125117813237e-05,-5.385837721405551e-05,1.9917692043236457e-05,0.00025985034881159663,-0.00018467933114152402,-0.0003440244763623923,0.00015261075168382376,-0.00014817764167673886,4.8183406761381775e-05,6.813211075495929e-05,-6.312190816970542e-05,-2.3887429051683284e-05,-3.166427995893173e-05,-0.0001415191509295255,-6.445853796321899e-05,-9.940350719261914e-05,-0.0002839268126990646,-0.00011130672646686435,-9.859533020062372e-05,-0.00012310128659009933,6.5510073909536e-05,-0.00015888562484178692,0.00010033408034360036,-9.334138303529471e-05,-6.392080103978515e-05,2.6298919237888185e-06,-3.0475914172711782e-05,4.328091017669067e-05,2.3383672669297084e-05,-1.966259878827259e-05,-0.00025055205333046615,0.00032542148255743086,8.040591637836769e-05,-0.0002820140216499567,-0.000115284783532843,-8.369792340090498e-05,-0.00017556255625095218,9.281811799155548e-06,0.0002559289277996868,-0.0001223984727403149,-2.7698961275746115e-05,-5.571737347054295e-05,0.000139085270348005,-0.00017863482935354114,0.0001605407305760309,9.38199445954524e-05,8.64359681145288e-05,5.1798484491882846e-05,0.00016388206859119236,-6.2360863921639975e-06,0.00013869379472453147,-0.00017954703071154654,-4.0007980715017766e-05,-2.236013278889004e-05,-0.00012259939103387296,0.0001268925261683762,0.00017625614418648183,-0.00026021612575277686,0.0001262648729607463,-3.9577212191943545e-06,-0.0001411195407854393,-0.00021570124954450876,-8.6508909589611e-05,6.571089033968747e-05,-0.0001572349719936028,0.000244352500885725,-0.00016601676179561764,0.00014650780940428376,9.035979746840894e-05,4.1798070014920086e-05,-0.00012071984383510426,-0.00012642830552067608,-2.6216908736387268e-05,-3.282394027337432e-05,6.105869397288188e-05,0.0002331064169993624,-1.1765022236431832e-06,-0.00010618612577673048,0.00024941505398601294,-0.00017144698358606547,0.00019837397849187255,-6.168521213112399e-05,-1.69313425431028e-05,0.00011411606101319194,3.283981641288847e-05,-0.00012573190906550735,-4.24141799157951e-05,0.00030394498025998473,5.033679190091789e-05,0.00012977648293599486,-8.995756797958165e-05,2.490879523975309e-05,-0.00013838692393619567,1.7502464970675646e-06,2.1260600988171063e-05,-6.993603619775968e-06,-6.0653423133771867e-05,7.025496597634628e-05,0.00021210989507380873,0.00022590761363971978,-0.00017323165957350284,-2.8964984721824294e-06,0.00013967181439511478,1.9370740119484253e-05,9.866639447864145e-05,-5.8091103710466996e-05,-0.0001821851183194667,-0.00019619362137746066,7.303829625016078e-05,0.00011518891551531851,9.31688305172429e-07,-1.2538523151306435e-05,2.5965018721763045e-05,0.0001706831535557285,0.00031521657365374267,3.80220590159297e-05,-0.00021760058007203043,8.33453523227945e-05,4.432085552252829e-05,-1.3059192497166805e-05,-3.7904130294919014e-05,0.0003127193485852331,-6.795553053962067e-05,-1.6280606359941885e-05,-8.866330608725548e-05,0.0002732246648520231,-0.00013245045556686819,0.00018333019397687167,-2.6523865017225035e-05,2.7642487111734226e-05,6.079972808947787e-05,6.788950122427195e-05,0.00010758270946098492,-4.050386633025482e-05,1.1020063539035618e-05,-6.625532114412636e-05,4.022977373097092e-05,4.30321269959677e-05,-4.202980562695302e-05,0.0001185126238851808,-9.03636755538173e-05,-0.00011402619566069916,3.065486907871673e-06,-0.0002030081523116678,0.00021014436788391322,-4.622865890269168e-05,0.00017234435654245317,4.031118442071602e-05,-9.930173837346956e-05,3.9475497032981366e-05,-0.00018645958334673196,4.92299186589662e-05,-0.0002805199474096298,1.9820976376649924e-05,-2.40383069467498e-05,6.362698331940919e-05,7.45830693631433e-05,5.669648089678958e-05,0.00029754190472885966,-3.122886482742615e-05,-0.00021262126392684877,4.087435627297964e-06,-2.2307753170025535e-05,8.225046258303337e-06,-4.9959773605223745e-05,-6.312967798294267e-06,7.699300476815552e-05,-0.0001460698404116556,3.48742505593691e-05,-0.0001310945808654651,2.8319012926658615e-05,-0.00014069305325392634,0.00015846033056732267,-5.1289167458890006e-05,2.0177734768367372e-05,8.66116679389961e-05,-0.00027307189884595573,0.00015753167099319398,9.039803262567148e-05,-8.898740634322166e-05,0.0002096041280310601,-8.536865789210424e-05,1.9708961190190166e-05,2.5481480406597257e-05,0.00018950991216115654,0.00022984965471550822,2.463822420395445e-05,-0.00023028078430797905,0.0002501819690223783,6.245703843887895e-05,0.00012390848132781684,9.57872107392177e-05,-0.00018026084580924362,2.0517700249911286e-05,0.00013708436745218933,7.574588380521163e-05,-0.0002638266305439174
0.0,0.0,0.0,0.0,0.0,0.0,0.0,0.0,0.0,0.0,0.0,0.0,0.0,0.0,0.0,0.0,0.0,0.0,0.0,0.0,0.0,0.0,0.0,0.0,0.0,0.0,0.0,0.0,0.0,0.0,0.0,0.0,0.0,0.0,0.0,0.0,0.0,0.0,0.0,0.0,0.0,0.0,0.0,0.0,0.0,0.0,0.0,0.0,0.0,0.0,0.0,0.0,0.0,0.0,0.0,0.0,0.0,0.0,0.0,0.0,0.0,0.0,0.0,0.0,0.0,0.0,0.0,0.0,0.0,0.0,0.0,0.0,0.0,0.0,0.0,0.0,0.0,0.0,0.0,0.0,0.0,0.0,0.0,0.0,0.0,0.0,0.0,0.0,0.0,0.0,0.0,0.0,0.0,0.0,0.0,0.0,0.0,0.0,0.0,0.0,0.0,0.0,0.0,0.0,0.0,0.0,0.0,0.0,0.0,0.0,0.0,0.0,0.0,0.0,0.0,0.0,0.0,0.0,0.0,0.0,0.0,0.0,0.0,0.0,0.0,0.0,0.0,0.0,0.0,0.0,0.0,0.0,0.0,0.0,0.0,0.0,0.0,0.0,0.0,0.0,0.0,0.0,0.0,0.0,0.0,0.0,0.0,0.0,0.0,0.0,0.0,0.0,0.0,0.0,0.0,0.0,0.0,0.0,0.0,0.0,0.0,0.0,0.0,0.0,0.0,0.0,0.0,0.0,0.0,0.0,0.0,0.0,0.0,0.0,0.0,0.0,0.0,0.0,0.0,0.0,0.0,0.0,0.0,0.0,0.0,0.0,0.0,0.0,0.0,0.0,0.0,0.0,0.0,0.0,0.0,0.0,0.0,0.0,0.0,0.0,0.0,0.0,0.0,0.0,0.0,0.0,0.0,0.0,0.0,0.0,0.0,0.0,0.0,0.0,0.0,0.0,0.0,0.0,0.0,0.0,0.0,0.0,0.0,0.0,0.0,0.0,0.0,0.0,0.0,0.0,0.0,0.0,0.0,0.0,0.0,0.0,0.0,0.0,0.0,0.0,0.0,0.0,0.0,0.0,0.0,0.0,0.0,0.0,0.0,0.0,0.0,0.0,0.0,0.0,0.0,0.0,0.0,0.0,0.0,0.0,0.0,0.0,0.0,0.0,0.0,0.0,0.0,0.0,0.0,0.0,0.0,0.0,0.0,0.0,0.0,0.0,0.0,0.0,0.0,0.0,0.0,0.0,0.0,0.0,0.0,0.0,0.0,0.0,0.0,0.0,0.0,0.0,0.0,0.0,0.0,0.0,0.0,0.0,0.0,0.0
-2.236787258880213e-05,-9.108956282943836e-05,-3.183414264640305e-06,-0.00014129767805570737,0.00011156912296428345,-0.00012557114314404316,-0.00020212497474858537,1.6024301658035256e-05,9.339318239653949e-05,6.828369441791438e-05,-0.00028072018176317215,8.841618546284735e-05,0.0002702810597838834,-5.77613573113922e-05,-5.250949459423282e-05,0.00010832698353624437,7.164549606386572e-05,8.534702419638052e-05,-0.0001554334958200343,-5.649402010021731e-05,1.9199433154426515e-06,6.177445175126195e-05,0.00012605386564246146,-4.6053111873334274e-05,-5.593858804786578e-05,3.577585448510945e-05,2.866461727535352e-05,-3.624278542702086e-05,-8.115635137073696e-05,5.48944080946967e-06,-0.00016245296865236014,8.311035981023451e-05,-3.305709833512083e-05,0.00020462312386371195,-0.00019555263315851334,0.00018518844262871426,-4.938033703183464e-05,-1.2668373983615311e-05,6.920492523931898e-05,5.37703454028815e-05,-0.00016074164159363136,-0.0001721049102343386,-9.825725283008069e-05,-2.0854715330642648e-05,0.00032723946787882596,6.387805842678063e-05,-0.00013802821410990873,1.6048668896928575e-05,-7.950359395181295e-05,8.50230899231974e-05,-7.1367496275343e-05,7.893335714470595e-05,0.00011692058615153655,-0.00029191751673351973,-0.00021720581025874708,-8.463817175652366e-05,-0.00012227960451127728,0.0001221544880536385,0.0001599459683347959,0.0004452259745448828,-0.0001317350470344536,2.5056004233192652e-05,-8.697268640389666e-05,-7.765572081552818e-05,3.690729499794543e-05,-0.00017738161113811657,-8.43956986500416e-05,0.000419918229454197,-0.00023768984829075634,0.00025629005540395156,-6.400759230018593e-05,-3.6928249755874276e-06,3.487926824163878e-05,-0.00013991368541610427,0.0001672353446338093,9.552417759550735e-05,4.116122727282345e-05,-4.340847817729809e-05,-5.1584356697276235e-06,5.675918509950861e-05,-1.3024669897276908e-05,-0.0001641010544517485,-1.5415109373861924e-05,-5.0642338464967906e-05,-5.05196294398047e-06,-0.00014323436334962025,2.5908205770974746e-05,-3.165383077430306e-05,8.857494685798883e-05,0.00010810602361743804,8.807100675767288e-05,-2.929442416643724e-05,-3.7980381421220955e-05,0.00026614603848429397,-0.00020203807798679918,8.264146708825137e-05,0.00012117825826862827,-2.548835618654266e-05,1.866442289610859e-06,0.0003604829835239798,1.870668347692117e-05,-9.819092474572244e-05,-8.652282485854812e-05,-9.52617010625545e-05,-0.00022132770754978992,1.871348968052189e-05,-9.403574767929967e-05,-3.497732905088924e-05,0.00018246693889523158,-0.00010074715146402013,-2.2292677385848947e-05,7.81671260483563e-05,-0.00016830178356030956,-0.0001632660860195756,-0.00012695245459326543,0.00020140631932008546,8.150364010361955e-05,0.00022901374541106634,8.012823673198e-05,4.219240236125188e-05,-6.137166565167718e-05,-4.898137149211834e-05,5.004376180295367e-05,0.0002696108422242105,-5.56412187506794e-05,3.9921593270264566e-05,-0.0001783322550181765,-0.00023041017266223207,0.0001947560376720503,0.00018797130246639426,2.487294841557741e-05,-4.866189556196332e-06,6.651690637227148e-05,-0.00024647815007483587,3.8464771932922304e-05,2.332373696845025e-06,-0.00029750845715170726,0.000330611685058102,5.8576904848450795e-05,7.92027021816466e-05,0.00022155158512759954,-4.702879232354462e-05,-4.4726781197823584e-05,0.00012690610492427368,-0.00022259280808611948,-4.769065708387643e-05,3.694761835504323e-05,-8.86619818629697e-05,7.613546404172666e-05,2.539204797358252e-05,2.4150130229827482e-05,6.598711479455233e-07,7.717359949310776e-05,0.0001208567318826681,-4.79934606119059e-05,-0.0002417076611891389,0.00030186650838004425,6.893757381476462e-05,6.332666089292616e-07,-0.00018408764663035981,-8.533243089914322e-08,3.825973431048624e-05,-0.0003495869896141812,-0.0002496912784408778,-0.000211558879527729,8.071244883467443e-05,8.363419692614116e-05,-0.00012689100094576133,0.00012220125427120365,0.00011453555634943768,-0.00019820954912574962,0.0001640430127736181,0.00013660196782439016,-3.413794911466539e-05,-7.219380222522886e-05,-2.108593071170617e-05,-7.231629206216894e-05,0.00024855466472217813,0.00019835811690427363,1.2737399174511665e-05,1.6554113244637847e-05,0.00010411694529466331,-0.00010972625386784784,-6.949173257453367e-05,-0.00014668309449916705,2.2155989427119493e-05,3.681219823192805e-06,-3.458414721535519e-05,0.00032996219670167193,2.536580723244697e-06,-2.3804495867807418e-05,3.471758736850461e-05,-2.1753312466898933e-06,-4.7689320126664825e-05,0.00020454972400330007,-4.2436311105120694e-06,-0.00023754411813570186,-0.00033174152486026287,0.00021551935606112238,-0.00021304356050677598,-0.00015389348118333146,0.00011078198167524533,7.092252417351119e-05,9.691873128758743e-05,-0.00026174478989560157,-0.00011009534273398458,9.437083099328447e-05,-4.045069363201037e-05,0.00022290197830443503,0.00017200139700435102,0.0001573630208895338,0.0002915741060860455,-0.00012761936886818148,-2.8191934688948095e-06,0.0002604483815957792,-0.00016078617409220897,2.5851899408735335e-05,-7.629516039742157e-05,-8.612681267550215e-05,7.58844744268572e-05,0.00012434036489139544,9.334999344901007e-05,0.0001542738827993162,-2.2318827632261673e-05,8.247107871284243e-05,0.0002033567798207514,-4.364485357655212e-05,7.146186339923588e-05,-0.00037669888115487993,3.938275654036261e-05,5.443714326247573e-05,-0.00015971130051184446,3.927915349777322e-05,-6.111550828791223e-05,-1.3233193385531195e-07,-5.506921297637746e-06,-0.00017122045392170548,-1.7376478353980929e-06,6.891998418723233e-05,0.00032361707417294383,-4.2488505414439715e-05,0.0002237976877950132,-3.84190097975079e-05,4.6410671529883984e-05,-0.0002362488303333521,2.030898758675903e-05,-4.037485632579774e-05,-9.846139073488303e-05,0.00016206477994273882,0.00032018609635997564,-0.00018370744510320947,0.00011676041322061792,-3.836513826627197e-05,-7.890387314546388e-05,-2.805887146450914e-05,5.164680442248937e-05,-0.00011517633174662478,-1.602829433977604e-05,-6.9884335971437395e-06,-0.00014123017717793118,8.042231274885125e-05,-0.0001406046430929564,-9.864775165624451e-06,-4.6599016059190035e-05,-6.585879600606859e-05,0.000199203304873663,-4.740221629617736e-05,0.00022671023907605559,0.00017172438856505323,0.00015387470921268687,-2.8646571081480943e-05,0.00011601843289099634,0.0003740716783795506,-6.094400669098832e-05,-0.00016736404177208897,0.00013477382344717626,-6.795555236749351e-06,-2.1744706828030758e-05,-9.743823602548218e-05,1.1409323633415624e-05,5.9344107285141945e-05,4.9051155656343326e-05,3.359770926181227e-05,-0.0001799554520403035,-3.864603058900684e-05,0.00014458085024671163,0.00025588950666133314,0.00010823239972523879,4.6156172174960375e-05,0.0003441091539571062,-3.088843368459493e-05,-6.401250357157551e-05,0.00020733056953758933,2.8138249035691842e-05,-0.00013311121074366383,0.00017577128892298788,0.00016484273510286584,0.00014813198868068866,8.37075490380812e-05,-2.3438259177055443e-05
0.0,0.0,0.0,0.0,0.0,0.0,0.0,0.0,0.0,0.0,0.0,0.0,0.0,0.0,0.0,0.0,0.0,0.0,0.0,0.0,0.0,0.0,0.0,0.0,0.0,0.0,0.0,0.0,0.0,0.0,0.0,0.0,0.0,0.0,0.0,0.0,0.0,0.0,0.0,0.0,0.0,0.0,0.0,0.0,0.0,0.0,0.0,0.0,0.0,0.0,0.0,0.0,0.0,0.0,0.0,0.0,0.0,0.0,0.0,0.0,0.0,0.0,0.0,0.0,0.0,0.0,0.0,0.0,0.0,0.0,0.0,0.0,0.0,0.0,0.0,0.0,0.0,0.0,0.0,0.0,0.0,0.0,0.0,0.0,0.0,0.0,0.0,0.0,0.0,0.0,0.0,0.0,0.0,0.0,0.0,0.0,0.0,0.0,0.0,0.0,0.0,0.0,0.0,0.0,0.0,0.0,0.0,0.0,0.0,0.0,0.0,0.0,0.0,0.0,0.0,0.0,0.0,0.0,0.0,0.0,0.0,0.0,0.0,0.0,0.0,0.0,0.0,0.0,0.0,0.0,0.0,0.0,0.0,0.0,0.0,0.0,0.0,0.0,0.0,0.0,0.0,0.0,0.0,0.0,0.0,0.0,0.0,0.0,0.0,0.0,0.0,0.0,0.0,0.0,0.0,0.0,0.0,0.0,0.0,0.0,0.0,0.0,0.0,0.0,0.0,0.0,0.0,0.0,0.0,0.0,0.0,0.0,0.0,0.0,0.0,0.0,0.0,0.0,0.0,0.0,0.0,0.0,0.0,0.0,0.0,0.0,0.0,0.0,0.0,0.0,0.0,0.0,0.0,0.0,0.0,0.0,0.0,0.0,0.0,0.0,0.0,0.0,0.0,0.0,0.0,0.0,0.0,0.0,0.0,0.0,0.0,0.0,0.0,0.0,0.0,0.0,0.0,0.0,0.0,0.0,0.0,0.0,0.0,0.0,0.0,0.0,0.0,0.0,0.0,0.0,0.0,0.0,0.0,0.0,0.0,0.0,0.0,0.0,0.0,0.0,0.0,0.0,0.0,0.0,0.0,0.0,0.0,0.0,0.0,0.0,0.0,0.0,0.0,0.0,0.0,0.0,0.0,0.0,0.0,0.0,0.0,0.0,0.0,0.0,0.0,0.0,0.0,0.0,0.0,0.0,0.0,0.0,0.0,0.0,0.0,0.0,0.0,0.0,0.0,0.0,0.0,0.0,0.0,0.0,0.0,0.0,0.0,0.0,0.0,0.0,0.0,0.0,0.0,0.0,0.0,0.0,0.0,0.0,0.0,0.0
0.0,0.0,0.0,0.0,0.0,0.0,0.0,0.0,0.0,0.0,0.0,0.0,0.0,0.0,0.0,0.0,0.0,0.0,0.0,0.0,0.0,0.0,0.0,0.0,0.0,0.0,0.0,0.0,0.0,0.0,0.0,0.0,0.0,0.0,0.0,0.0,0.0,0.0,0.0,0.0,0.0,0.0,0.0,0.0,0.0,0.0,0.0,0.0,0.0,0.0,0.0,0.0,0.0,0.0,0.0,0.0,0.0,0.0,0.0,0.0,0.0,0.0,0.0,0.0,0.0,0.0,0.0,0.0,0.0,0.0,0.0,0.0,0.0,0.0,0.0,0.0,0.0,0.0,0.0,0.0,0.0,0.0,0.0,0.0,0.0,0.0,0.0,0.0,0.0,0.0,0.0,0.0,0.0,0.0,0.0,0.0,0.0,0.0,0.0,0.0,0.0,0.0,0.0,0.0,0.0,0.0,0.0,0.0,0.0,0.0,0.0,0.0,0.0,0.0,0.0,0.0,0.0,0.0,0.0,0.0,0.0,0.0,0.0,0.0,0.0,0.0,0.0,0.0,0.0,0.0,0.0,0.0,0.0,0.0,0.0,0.0,0.0,0.0,0.0,0.0,0.0,0.0,0.0,0.0,0.0,0.0,0.0,0.0,0.0,0.0,0.0,0.0,0.0,0.0,0.0,0.0,0.0,0.0,0.0,0.0,0.0,0.0,0.0,0.0,0.0,0.0,0.0,0.0,0.0,0.0,0.0,0.0,0.0,0.0,0.0,0.0,0.0,0.0,0.0,0.0,0.0,0.0,0.0,0.0,0.0,0.0,0.0,0.0,0.0,0.0,0.0,0.0,0.0,0.0,0.0,0.0,0.0,0.0,0.0,0.0,0.0,0.0,0.0,0.0,0.0,0.0,0.0,0.0,0.0,0.0,0.0,0.0,0.0,0.0,0.0,0.0,0.0,0.0,0.0,0.0,0.0,0.0,0.0,0.0,0.0,0.0,0.0,0.0,0.0,0.0,0.0,0.0,0.0,0.0,0.0,0.0,0.0,0.0,0.0,0.0,0.0,0.0,0.0,0.0,0.0,0.0,0.0,0.0,0.0,0.0,0.0,0.0,0.0,0.0,0.0,0.0,0.0,0.0,0.0,0.0,0.0,0.0,0.0,0.0,0.0,0.0,0.0,0.0,0.0,0.0,0.0,0.0,0.0,0.0,0.0,0.0,0.0,0.0,0.0,0.0,0.0,0.0,0.0,0.0,0.0,0.0,0.0,0.0,0.0,0.0,0.0,0.0,0.0,0.0,0.0,0.0,0.0,0.0,0.0,0.0
0.0,0.0,0.0,0.0,0.0,0.0,0.0,0.0,0.0,0.0,0.0,0.0,0.0,0.0,0.0,0.0,0.0,0.0,0.0,0.0,0.0,0.0,0.0,0.0,0.0,0.0,0.0,0.0,0.0,0.0,0.0,0.0,0.0,0.0,0.0,0.0,0.0,0.0,0.0,0.0,0.0,0.0,0.0,0.0,0.0,0.0,0.0,0.0,0.0,0.0,0.0,0.0,0.0,0.0,0.0,0.0,0.0,0.0,0.0,0.0,0.0,0.0,0.0,0.0,0.0,0.0,0.0,0.0,0.0,0.0,0.0,0.0,0.0,0.0,0.0,0.0,0.0,0.0,0.0,0.0,0.0,0.0,0.0,0.0,0.0,0.0,0.0,0.0,0.0,0.0,0.0,0.0,0.0,0.0,0.0,0.0,0.0,0.0,0.0,0.0,0.0,0.0,0.0,0.0,0.0,0.0,0.0,0.0,0.0,0.0,0.0,0.0,0.0,0.0,0.0,0.0,0.0,0.0,0.0,0.0,0.0,0.0,0.0,0.0,0.0,0.0,0.0,0.0,0.0,0.0,0.0,0.0,0.0,0.0,0.0,0.0,0.0,0.0,0.0,0.0,0.0,0.0,0.0,0.0,0.0,0.0,0.0,0.0,0.0,0.0,0.0,0.0,0.0,0.0,0.0,0.0,0.0,0.0,0.0,0.0,0.0,0.0,0.0,0.0,0.0,0.0,0.0,0.0,0.0,0.0,0.0,0.0,0.0,0.0,0.0,0.0,0.0,0.0,0.0,0.0,0.0,0.0,0.0,0.0,0.0,0.0,0.0,0.0,0.0,0.0,0.0,0.0,0.0,0.0,0.0,0.0,0.0,0.0,0.0,0.0,0.0,0.0,0.0,0.0,0.0,0.0,0.0,0.0,0.0,0.0,0.0,0.0,0.0,0.0,0.0,0.0,0.0,0.0,0.0,0.0,0.0,0.0,0.0,0.0,0.0,0.0,0.0,0.0,0.0,0.0,0.0,0.0,0.0,0.0,0.0,0.0,0.0,0.0,0.0,0.0,0.0,0.0,0.0,0.0,0.0,0.0,0.0,0.0,0.0,0.0,0.0,0.0,0.0,0.0,0.0,0.0,0.0,0.0,0.0,0.0,0.0,0.0,0.0,0.0,0.0,0.0,0.0,0.0,0.0,0.0,0.0,0.0,0.0,0.0,0.0,0.0,0.0,0.0,0.0,0.0,0.0,0.0,0.0,0.0,0.0,0.0,0.0,0.0,0.0,0.0,0.0,0.0,0.0,0.0,0.0,0.0,0.0,0.0,0.0,0.0
0.0,0.0,0.0,0.0,0.0,0.0,0.0,0.0,0.0,0.0,0.0,0.0,0.0,0.0,0.0,0.0,0.0,0.0,0.0,0.0,0.0,0.0,0.0,0.0,0.0,0.0,0.0,0.0,0.0,0.0,0.0,0.0,0.0,0.0,0.0,0.0,0.0,0.0,0.0,0.0,0.0,0.0,0.0,0.0,0.0,0.0,0.0,0.0,0.0,0.0,0.0,0.0,0.0,0.0,0.0,0.0,0.0,0.0,0.0,0.0,0.0,0.0,0.0,0.0,0.0,0.0,0.0,0.0,0.0,0.0,0.0,0.0,0.0,0.0,0.0,0.0,0.0,0.0,0.0,0.0,0.0,0.0,0.0,0.0,0.0,0.0,0.0,0.0,0.0,0.0,0.0,0.0,0.0,0.0,0.0,0.0,0.0,0.0,0.0,0.0,0.0,0.0,0.0,0.0,0.0,0.0,0.0,0.0,0.0,0.0,0.0,0.0,0.0,0.0,0.0,0.0,0.0,0.0,0.0,0.0,0.0,0.0,0.0,0.0,0.0,0.0,0.0,0.0,0.0,0.0,0.0,0.0,0.0,0.0,0.0,0.0,0.0,0.0,0.0,0.0,0.0,0.0,0.0,0.0,0.0,0.0,0.0,0.0,0.0,0.0,0.0,0.0,0.0,0.0,0.0,0.0,0.0,0.0,0.0,0.0,0.0,0.0,0.0,0.0,0.0,0.0,0.0,0.0,0.0,0.0,0.0,0.0,0.0,0.0,0.0,0.0,0.0,0.0,0.0,0.0,0.0,0.0,0.0,0.0,0.0,0.0,0.0,0.0,0.0,0.0,0.0,0.0,0.0,0.0,0.0,0.0,0.0,0.0,0.0,0.0,0.0,0.0,0.0,0.0,0.0,0.0,0.0,0.0,0.0,0.0,0.0,0.0,0.0,0.0,0.0,0.0,0.0,0.0,0.0,0.0,0.0,0.0,0.0,0.0,0.0,0.0,0.0,0.0,0.0,0.0,0.0,0.0,0.0,0.0,0.0,0.0,0.0,0.0,0.0,0.0,0.0,0.0,0.0,0.0,0.0,0.0,0.0,0.0,0.0,0.0,0.0,0.0,0.0,0.0,0.0,0.0,0.0,0.0,0.0,0.0,0.0,0.0,0.0,0.0,0.0,0.0,0.0,0.0,0.0,0.0,0.0,0.0,0.0,0.0,0.0,0.0,0.0,0.0,0.0,0.0,0.0,0.0,0.0,0.0,0.0,0.0,0.0,0.0,0.0,0.0,0.0,0.0,0.0,0.0,0.0,0.0,0.0,0.0,0.0,0.0
5.217729994910769e-05,0.00023601498105563223,-0.0003373734070919454,0.0003012349479831755,-4.37601120211184e-05,-4.158662704867311e-05,-0.00016858255548868328,0.00026021397206932306,-2.6769577743834816e-05,0.0003425032482482493,-7.633193308720365e-05,-0.00038206635508686304,-0.00013020391634199768,-6.607490649912506e-05,0.00022938917391002178,-0.00023987889289855957,0.00036998899304307997,-3.1692841730546206e-05,-3.5375653624214465e-06,0.00024028577900025994,-7.484939851565287e-05,0.00010787375504150987,0.00019982006051577628,-0.0002584526955615729,-4.478238042793237e-05,0.0002092128124786541,-0.00021816515072714537,7.283587183337659e-05,-0.00019478837202768773,-0.00029006163822486997,-0.0003859609132632613,-6.32193114142865e-05,0.0003388558980077505,0.00015746043936815113,-8.345900278072804e-05,0.00013724867312703282,-0.00027591781690716743,-5.316648821462877e-05,0.0002925810113083571,-0.0001495707838330418,5.05338903167285e-05,-0.00015557276492472738,-0.0002543839218560606,-1.8687829651753418e-05,-2.4111195671139285e-05,-5.9614838392008096e-05,0.0001353661937173456,7.03273035469465e-05,-2.7096382382296724e-06,-0.00025217278744094074,0.00020360370399430394,-6.734412454534322e-05,-4.513894236879423e-05,-0.00012867464101873338,-0.0002737250179052353,-0.0002751190331764519,0.0003304348501842469,0.00027922779554501176,-0.00013575595221482217,-0.0003492498944979161,3.600264972192235e-05,-0.0002582096494734287,1.3366413440962788e-05,0.0001622798154130578,-2.7988795409328304e-05,-0.00026437480119057,0.00011539430124685168,-0.00017457579087931663,-0.00015356666699517518,6.872375524835661e-05,4.269128112355247e-05,-0.0001828862150432542,-0.0002959517587441951,4.90225193061633e-06,-4.7051315050339326e-05,2.3544962459709495e-05,-8.558380795875564e-05,0.0001643695868551731,-0.00025308597832918167,-0.0002197425055783242,0.0003103592898696661,-4.214055297779851e-05,-6.392015347955748e-05,-0.00012825248995795846,-0.0003445188922341913,0.00026323783094994724,-0.0002167972270399332,9.198451152769849e-05,-0.00019884607172571123,0.00012192034046165645,1.8308675862499513e-05,8.743497164687142e-05,-2.977919029945042e-05,0.0001737683778628707,-2.0177096303086728e-05,0.0002493015199434012,0.0004104241088498384,-9.260781371267512e-05,-0.0002561690052971244,-0.0001781670725904405,0.0002160133299184963,0.00016136975318659097,0.00027152165421284735,0.0001336083805654198,-0.00012662132212426513,0.00032929962617345154,-0.00023725104983896017,-0.00010773188841994852,-0.00025223143165931106,5.842143218615092e-05,0.0003345425066072494,0.00011450764577602968,-0.00014727070811204612,0.00012614077422767878,-5.229475937085226e-05,-8.426657586824149e-05,0.0001929831487359479,0.00019852726836688817,0.00022858480224385858,0.00020569298067130148,-0.00010645054862834513,-9.42955375649035e-05,0.00024148981901817024,-3.7915087887085974e-05,0.00012542407785076648,-8.069541945587844e-05,3.2324485800927505e-05,0.0003824341401923448,0.0003589340776670724,-0.00010882214701268822,0.00014612212544307113,3.882534656440839e-05,4.815599095309153e-05,-0.0001454850862501189,0.0003698272630572319,0.00011232031101826578,0.0002149628271581605,0.00022839524899609387,0.00018296176858711988,-0.0003214539319742471,-0.0003720815584529191,-4.544539478956722e-05,-0.0002016801299760118,-2.4086602934403345e-05,0.00018171424744650722,3.962539631174877e-05,-1.8980728782480583e-05,0.000337492732796818,6.653789023403078e-05,0.00012906956544611603,0.00034215612686239183,0.00016124504327308387,4.145212187722791e-06,0.000226072603254579,-2.414498885627836e-05,0.00012472835078369826,0.00029727641958743334,-0.00024505407782271504,0.0002756921458058059,9.756495273904875e-05,-1.6991134543786757e-05,-0.00016494316514581442,0.00026868065469898283,2.7321231755195186e-05,-0.0002691478584893048,5.919563409406692e-05,0.0002286128728883341,4.772557076648809e-05,0.0003646923287305981,8.530039485776797e-05,5.601138400379568e-05,0.0003588497347664088,0.00014137345715425909,0.00016517059702891856,1.1748651559173595e-05,-5.420762681751512e-05,-0.0001252291986020282,9.784523717826232e-05,0.00037627690471708775,0.00021533234394155443,-2.8602489692275412e-05,0.00019462828640826046,5.7534914958523586e-05,7.28357263142243e-05,6.949070666451007e-05,-0.00016008855891413987,-0.00010824541823239997,1.4347523347169044e-06,-0.0002859296218957752,0.0001115256964112632,0.00028622004901990294,0.00032719169394113123,-0.00030423898715525866,-0.0002993218949995935,0.0001266326871700585,8.040123066166416e-05,3.56845157511998e-05,0.00017508621385786682,0.00016970204887911677,-0.0002852481557056308,0.00015921088925097138,-9.176091407425702e-05,0.00010341143206460401,-0.00020308539387769997,-5.629891893477179e-05,0.0003571594425011426,-0.00027673906879499555,0.00013162866525817662,0.00015066115884110332,-0.00014729816757608205,-5.649168087984435e-05,4.1169907490257174e-05,-6.584949733223766e-05,-0.00013286811008583754,0.00023058784427121282,-5.329835039447062e-05,1.4216822819435038e-05,8.351438009412959e-05,5.4711708799004555e-05,-1.3250390111352317e-05,-8.164377504726872e-05,-0.00012614770093932748,-0.0003816833777818829,0.00019310956122353673,-0.00017110969929490238,-0.00020588414918165654,0.000281336106127128,-0.00010823587945196778,-1.0557184396020602e-05,0.00025986411492340267,-6.785855657653883e-05,5.606443096439762e-07,8.331475692102686e-05,-6.163814396131784e-05,-9.839821359491907e-06,-0.00023076597426552325,-0.0002496081287972629,7.220963198051322e-06,0.00023132683418225497,-4.3149531848030165e-05,-0.0001145131973316893,-6.812194442318287e-06,0.00016924014198593795,1.2581214832607657e-05,3.499806553008966e-06,7.440118497470394e-05,0.0003621190844569355,1.7597385522094555e-05,-6.224356184247881e-05,-2.4737888452364132e-05,0.00013348925858736038,7.5779639701067936e-06,-0.0001716352126095444,0.00042207908700220287,-6.874925020383671e-06,-9.674744796939194e-05,0.0003340841212775558,0.00022784352768212557,0.0002008161973208189,0.00019803998293355107,0.00033849308965727687,-0.00018288576393388212,0.0001540298544568941,-0.00019712559878826141,0.00020759999461006373,-2.473859603924211e-05,-6.149830005597323e-05,-7.611263572471216e-05,0.0001447664835723117,-2.1324514818843454e-05,4.593895573634654e-05,7.470549462595955e-05,2.1395035219029523e-05,3.3498767152195796e-05,9.888016393233556e-06,9.739826782606542e-05,9.366741323901806e-06,3.841205398202874e-05,-0.0003009038628078997,3.2020965591073036e-05,-0.0002495340013410896,-4.5105603931006044e-05,-0.00022790524235460907,-5.089686601422727e-05,-0.00014039581583347172,1.6928257537074387e-05,-0.0003695844497997314,-0.0001926776021718979,0.0004132669710088521,0.00016175510245375335,0.00012490377412177622,-0.00033433781936764717,3.1535440939478576e-05,0.00013701323769055307,-0.0003245828556828201,0.0001612873311387375,2.1024739908170886e-05,0.0003750073374249041,-5.3272146033123136e-05,0.00041473176679573953
-9.599552140571177e-05,-0.00013511515862774104,-5.0447299145162106e-05,0.00014582563017029315,-8.271295882877894e-06,2.0576415408868343e-05,4.651625931728631e-05,4.495531565851252e-05,-0.00011750369321816834,4.4196759517944884e-05,-0.00020353245599835645,2.0632492123695556e-05,0.0002443689663778059,0.0003434739264775999,4.732464731205255e-06,-5.783819142379798e-05,-0.00017532752099214122,-0.0001687065087025985,1.8224978248326806e-05,-0.00028516945167211816,-8.397324927500449e-05,0.00011173009988851845,0.00011134777923871297,0.0002667429289431311,2.4218709768319968e-05,-0.00023871478697401471,0.00017110372664319584,6.866532930871472e-05,2.2126943804323673e-05,-0.00028839589504059404,7.42834836273687e-05,-0.00015899199115665397,-0.0002079810801660642,0.00017468214900873136,-0.00010572617065918166,7.041156186460285e-05,-9.599521581549197e-05,-5.743234396504704e-05,-9.075371781364083e-05,0.00027614785358309746,-5.675373540725559e-05,-9.130702710535843e-05,0.000194938198546879,0.00012607063763425685,0.00023276294086826965,0.00015572676420561038,-8.381584666494746e-05,-0.00011908661690540612,0.00014273841952672228,-0.00012717392019112594,4.70451450382825e-05,-0.00018784043641062453,7.740356159047224e-05,-2.0750806470459793e-05,-2.3804350348655134e-05,-5.486760346684605e-05,2.856469109246973e-06,-3.7626654375344515e-05,-0.0002852872130461037,-0.00028183613903820515,6.570743153133662e-05,5.827494169352576e-05,-3.805778942478355e-05,-0.00010380210369476117,-4.4412790884962305e-06,0.00012526698174042394,-3.0534709367202595e-05,0.00017619356367504224,-2.0188235794194043e-07,-7.806538633303717e-06,0.00015978895498847123,-0.0001264042548427824,-0.00014940307846700307,-0.00023316963415709324,-7.146067218855023e-06,-0.00022520946367876604,4.5589149522129446e-05,6.677374767605215e-05,0.00018244288366986439,2.6052370230900124e-05,-4.5677916205022484e-05,7.683681633352535e-05,-0.00011806763359345496,3.228416289857705e-05,0.00011228502989979461,-8.958955731941387e-06,-4.318837454775348e-05,-0.00016493224757141434,5.601092198048718e-05,5.210653398535214e-06,-4.434663424035534e-05,-0.0001010587002383545,-0.00017639715952100232,-9.000692625704687e-05,-6.132078488008119e-05,-5.770598727394827e-05,-0.00010186921645072289,-0.00019432940189290093,-0.00011485963841550983,-0.00015635767340427265,0.00033807900035753846,-6.0671576648019254e-05,-3.235143958590925e-05,-0.00012144640277256258,-0.00010778731666505337,6.672424206044525e-06,-0.00010532847954891622,-3.3655043807812035e-05,9.405933815287426e-05,5.072652038506931e-05,-0.00010236398111374001,7.530883522122167e-05,-8.954237273428589e-05,-5.7110522902803496e-05,-1.80436072696466e-05,-5.60826993023511e-05,0.00020639553986256942,0.00023203300224849954,-1.6862813936313614e-05,5.637660069623962e-05,7.443662980222143e-05,-4.5744132876279764e-05,-0.00021498967544175684,0.0001282331131733372,2.4517539713997394e-06,8.520935989508871e-05,0.00021463900338858366,0.0002473476451996248,5.006735045753885e-05,0.00016398758089053445,0.00015492557395191398,9.373815009894315e-05,-8.969291502580745e-05,-0.00013108560960972682,2.0689665689133108e-05,0.00015111759785213508,-0.00011444513438618742,5.9975766703246336e-05,0.00011935781367355958,7.67235778766917e-05,0.0001696624021860771,0.00011307110980851576,-0.0002024712575803278,8.552932558814064e-05,2.108356056851335e-05,-5.2246260338506545e-05,-0.000179841060344188,-4.121838355786167e-05,-8.901952060114127e-05,7.440058834617957e-05,8.759171032579616e-05,5.367988160287496e-05,-4.780255699188274e-05,-4.556158910418162e-05,-0.0001409511751262471,3.500630191410892e-05,-0.0003136545419692993,6.398781624739058e-05,-0.0002609295115689747,0.00024138714070431888,9.426921678823419e-05,-0.0001116354287660215,8.622345922049135e-05,0.00034696978400461376,2.2007254301570356e-05,-0.00012042287744407076,-1.630926999496296e-05,0.0001762549945851788,0.00019707428145920858,0.00011509797059261473,-0.0002852304946827644,2.6812340365722775e-05,0.00021081823433632962,0.00012028138917230535,1.3142278476152569e-05,0.00014076737943469197,0.00011768774390930048,2.428677362331655e-05,-1.891854844870977e-05,-0.0002355048927711323,8.424214320257306e-05,-8.070433977991343e-05,-6.38490637356881e-05,0.0001318591348535847,-3.392307519334281e-05,0.00019424268248258159,0.00019348794012330472,-3.5996941733174026e-05,-5.510948540177196e-06,0.00010763389400381129,-0.00021500943512364756,4.3520721192180645e-05,-0.00010629607641021721,6.088271766202524e-05,-1.5289813745766878e-05,0.00015406416468977113,2.408547152299434e-05,-0.00033329633879475296,0.00029607725809910335,9.229588522430276e-05,0.00027611836412688717,-6.351063711917959e-05,5.268995209917193e-05,7.798831893524039e-05,3.0945091566536576e-05,-0.00015448080375790596,-6.122034591271586e-05,2.5142489903373644e-06,-0.00011724336582119577,0.00011310590343782678,-0.00014734331944055157,-1.071326551027596e-06,-9.941240796251805e-05,-0.0001673069054959342,-3.478754297248088e-05,8.671940304338932e-05,1.8783881387207657e-05,6.582878268091008e-05,-0.00021573731282842346,0.0001618266423975001,0.00014592919615097344,-1.2413824151735753e-05,4.4628964587900555e-05,-0.000112230238300981,-0.00011704769985954044,6.389487680280581e-05,0.00017843232490122318,-7.512225420214236e-05,8.180649274436291e-05,0.0002229423917015083,-4.8762187361717224e-05,0.0002117071817338001,9.957434303942136e-05,-4.802636249223724e-05,9.094613392335305e-05,-0.0002480103576090187,5.10346180817578e-05,0.00017800152045310824,-0.00019569369032979012,-0.000113679125206545,-1.6925209820328746e-05,0.00027288389537716284,-7.334847759921104e-05,0.00010596787797112484,5.617177339445334e-05,0.00020426617265911773,3.450493750278838e-05,-3.7594693253595324e-05,0.00011299051675450755,0.0002762998192338273,-9.166977542918175e-05,0.0001060125941876322,8.426246495218948e-05,-0.00021936467237537727,-0.00023027438874123618,7.22894437785726e-05,8.557115143048577e-05,-3.237961573177017e-05,-0.00011786681784542452,0.00020305152429500595,-4.387941771710757e-05,-4.3124358853674494e-05,-0.00015553333378193201,0.0003352931744302623,0.00014830823602096643,2.7605390641838312e-05,-1.3497585314325988e-05,0.00011013237053703051,2.2295265807770193e-05,8.074026482063346e-05,-0.00026160996640101075,-0.00017464649681642186,0.00017214418039657176,-5.0437578465789557e-05,-0.000267265408183448,-0.0001152614422608167,9.109021084441338e-05,-0.00014133527292869985,-0.0001668690165388398,7.607369479956105e-05,0.00011866641216329299,-0.0002681125479284674,-2.3787633836036548e-05,0.0002671498850759235,-0.00019196607172489166,-0.0002698328571568709,0.0001705570102785714,0.00012778495511156507,2.029071947617922e-05,-7.374881533905864e-06,-9.820330342336092e-05,1.2237858754815534e-05,2.574131212895736e-05,4.305229776946362e-05,-0.00015534970589214936,-4.765533685713308e-05,7.27716542314738e-05,3.1301897251978517e-06,-1.24825892271474e-05,-3.850101347779855e-05
0.00019772535597439855,-0.00012675699099418125,0.00012977842743566725,3.974567516706884e-05,0.00013315862088347785,0.00019443232667981647,-0.00012163454812252894,0.00011276498571533011,-0.00014275139801611658,0.00027562999457586557,-8.756939314480405e-05,0.0003095369611401111,0.0001698158412182238,3.289982305432204e-05,4.7712565105939575e-05,0.00021386078151408583,0.00020435877740965225,-0.00011740297713913606,-0.00018461647414369509,-2.9730239475611597e-05,-4.496217115956824e-05,0.00014477806143986527,0.0001625090626475867,-7.6438350333774e-05,1.893599983304739e-05,0.00015334077397710644,1.9580122170737013e-05,5.563070271819015e-05,4.167149336353759e-05,-0.00012167707245680504,-0.00016304731252603233,0.00010137717663383228,-0.00012768346277880482,0.000172802887391299,-0.0002582642628112808,6.59878696751548e-05,-0.0001687973490334116,-0.00013122543941790354,2.1923871827311814e-05,-6.080750063119922e-05,7.775723133818246e-05,-0.00017227469652425498,-0.00015179799811448902,-0.00010400748669781024,0.00013656369628733955,0.00016853445777087472,-7.578388829188043e-05,4.292585987286657e-05,6.177210707392078e-05,7.57883935875725e-05,6.54151699563954e-05,0.00013971417138236575,1.886588870547712e-05,-0.00013931005128142715,-0.00012346768926363438,6.571131416421849e-05,-8.430959678662475e-05,0.00013773115006188164,8.477989831590094e-05,0.00016864880035427632,3.470681986073032e-05,5.582777794188587e-05,0.00011558766345842741,6.127083906903863e-06,5.503895954461768e-05,-0.0001694658822088968,-0.0001322137723036576,0.00023543901625089347,-0.0001064148930254305,0.00014597187146137003,5.7754971294343704e-05,0.00015328590234275907,-2.3020031221676618e-05,0.00011793574594776146,0.00019992696070403326,4.0117601201927755e-05,0.00010704581109166611,-4.9018303343473235e-05,5.721906018152367e-05,0.00018337932124268264,-8.063963241511374e-05,2.6439551675139228e-05,-0.00013068437328911386,-4.3239817387075163e-05,1.613030326552689e-05,-9.075424168258905e-05,-2.1360192477004603e-05,-8.347099719685502e-05,-0.00013040295743849128,5.8888290368486196e-05,-0.0002000346066779457,-6.746082362951711e-05,3.585008016671054e-06,0.00011340193304931745,-4.983856342732906e-06,5.304216574586462e-05,-0.00014194357208907604,-0.00010566060700512026,-1.850240596468211e-05,0.0002406885105301626,-3.5039378417422995e-05,0.0001247594268534158,-3.5156874218955636e-05,2.8265389119042084e-05,-9.77590389084071e-06,8.960518243839033e-05,-0.00010770295102702221,-4.1708080971147865e-06,-1.9611698917287868e-05,2.7355679321772186e-05,-1.2695943496510154e-05,-9.89191194094019e-05,-0.00011512260243762285,-7.987407047949091e-05,-0.00013123873577569611,0.00033278985938522965,1.6502070138812996e-05,-4.411637564771809e-05,0.00010697133075154852,2.086676067847293e-05,5.334385423338972e-05,0.00010164191598960315,-0.00015389091095130425,-2.753150329226628e-05,-5.5405106650141533e-05,-0.00010581430979073048,-0.00013737265226154705,-8.481222812406486e-05,0.00014681905304314569,-4.2050104866575566e-05,3.835474853985943e-05,-6.778733654755342e-05,0.0001888471088022925,-0.0001749819130054675,-0.00015779343084432185,6.934449993423186e-05,-1.5702789823990315e-05,0.00023420517754857428,0.0001205379085149616,7.641363117727451e-05,-3.892943391292647e-05,-7.541405648225918e-05,-4.067183908773586e-05,0.00012024943316646386,-4.582530232255522e-05,6.027137715136632e-05,-3.805744654528098e-05,-0.0002418457588646561,0.00012086978676961735,-0.00010119067155756056,-3.8244776078499854e-05,-0.00019438675008132122,-2.143622623407282e-05,0.00015682942103012465,5.776621719633113e-05,-0.00010475337876414414,0.00025898879539454356,-0.00012777818119502626,-7.133909093681723e-05,-0.00015795769286341965,-5.641617735818727e-05,9.556481745676138e-05,-4.659524711314589e-05,-8.058777075348189e-05,-0.00010446918531670235,-0.00013431752813630737,2.2008086489222478e-05,-0.000170342845194682,0.0001299667710554786,0.000164224142281455,-0.00012476078336476348,9.742410293256398e-05,0.00011866778919511489,0.0001359954767394811,6.633368593611522e-05,9.057878560270183e-05,5.052139749750495e-05,0.00010923671652562916,0.00014561451098416,-2.7979449441772886e-05,-0.00016598393995082006,0.0001879910305433441,-1.1635345799732022e-05,-0.00023530358885182068,1.195375807583332e-05,-0.00016972833509498741,-8.468052874377463e-05,-0.00015251737295329804,5.619836156256497e-05,-3.1258441595127806e-05,-0.00019669039465952665,1.6427179616584908e-07,3.882361852447502e-05,-0.00014372891746461391,0.00027883156144525856,1.3702585647479282e-05,-0.0002492982675903477,6.468629726441577e-05,2.5183705020026537e-05,-1.7790018318919465e-05,-1.3951954315416515e-05,0.00014175676005834248,6.874303471704479e-05,0.00011459986490081064,-0.00014405113870452624,-9.569294115863158e-05,0.00011383800483599771,-4.2889594624284655e-05,0.00010959580413327785,0.00011198652282473631,-3.003341112162161e-05,0.00015403656470880378,-7.490800635423511e-05,4.252545659255702e-05,-0.0001036245739669539,-0.0001844797661760822,-0.000220514353713952,3.810149155469844e-05,-0.00017491057951701805,3.386497883184347e-05,7.216525409603491e-05,3.756683872779831e-05,0.0001766810928529594,-0.00012168814646429382,-1.671837981120916e-05,5.281957783154212e-05,-0.000141186268592719,9.068104373000097e-05,-0.0003181899810442701,5.594455342361471e-05,1.9533945305738598e-07,-4.982361315342132e-05,-8.736313793633599e-05,5.2453018724918365e-05,-0.00013972242595627904,2.7802055683423532e-05,-8.740234989090823e-05,7.925559475552291e-05,-0.00014806953913648613,0.00022626562713412568,-3.261684560129652e-05,-2.887668233597651e-05,9.949671948561445e-06,-1.7245505659957416e-05,-3.544661376508884e-05,0.00015698229981353506,4.9761416448745877e-05,0.00010053463120129891,0.00019182556206942536,0.00016418826271547005,-8.731498382985592e-06,3.822884173132479e-05,8.197850218039093e-05,-0.00023710367531748489,-5.324496851244476e-05,-9.701186172605958e-05,-5.6076847613439895e-05,2.3459077056031674e-05,-6.608145122299902e-05,-0.0001362982957289205,3.170091167703504e-05,4.028894909424707e-05,-0.00010471373752807267,-0.0001419909567630384,-0.00010258948168484494,0.00010293679770256858,-0.00013386732189246686,9.310828863817733e-05,0.00022723638539901003,7.277113400050439e-05,0.00013054956980340648,0.0002555372630013153,0.00018195651136920787,4.788647675013635e-05,1.9515188796503935e-05,0.0001202320127049461,4.02858859160915e-06,-4.8247453833027976e-05,-0.00011749133773264475,-0.00010409083552076481,7.432261736539658e-05,0.00012646635150304064,-4.9755069994716905e-05,-0.0001607413068995811,-0.00013174865853216033,0.00023157753457780927,4.517808702075854e-05,4.0832801460055634e-06,0.00019964851526310667,9.291552487411536e-05,0.0001637990353628993,-0.00010040923052656581,0.00012082413013558835,4.046424510306679e-05,-1.781205355655402e-05,8.869375051290262e-05,-1.1437878129072487e-06,0.00020922381372656673,2.6743808120954782e-05,-1.8069131783704506e-05
0.0,0.0,0.0,0.0,0.0,0.0,0.0,0.0,0.0,0.0,0.0,0.0,0.0,0.0,0.0,0.0,0.0,0.0,0.0,0.0,0.0,0.0,0.0,0.0,0.0,0.0,0.0,0.0,0.0,0.0,0.0,0.0,0.0,0.0,0.0,0.0,0.0,0.0,0.0,0.0,0.0,0.0,0.0,0.0,0.0,0.0,0.0,0.0,0.0,0.0,0.0,0.0,0.0,0.0,0.0,0.0,0.0,0.0,0.0,0.0,0.0,0.0,0.0,0.0,0.0,0.0,0.0,0.0,0.0,0.0,0.0,0.0,0.0,0.0,0.0,0.0,0.0,0.0,0.0,0.0,0.0,0.0,0.0,0.0,0.0,0.0,0.0,0.0,0.0,0.0,0.0,0.0,0.0,0.0,0.0,0.0,0.0,0.0,0.0,0.0,0.0,0.0,0.0,0.0,0.0,0.0,0.0,0.0,0.0,0.0,0.0,0.0,0.0,0.0,0.0,0.0,0.0,0.0,0.0,0.0,0.0,0.0,0.0,0.0,0.0,0.0,0.0,0.0,0.0,0.0,0.0,0.0,0.0,0.0,0.0,0.0,0.0,0.0,0.0,0.0,0.0,0.0,0.0,0.0,0.0,0.0,0.0,0.0,0.0,0.0,0.0,0.0,0.0,0.0,0.0,0.0,0.0,0.0,0.0,0.0,0.0,0.0,0.0,0.0,0.0,0.0,0.0,0.0,0.0,0.0,0.0,0.0,0.0,0.0,0.0,0.0,0.0,0.0,0.0,0.0,0.0,0.0,0.0,0.0,0.0,0.0,0.0,0.0,0.0,0.0,0.0,0.0,0.0,0.0,0.0,0.0,0.0,0.0,0.0,0.0,0.0,0.0,0.0,0.0,0.0,0.0,0.0,0.0,0.0,0.0,0.0,0.0,0.0,0.0,0.0,0.0,0.0,0.0,0.0,0.0,0.0,0.0,0.0,0.0,0.0,0.0,0.0,0.0,0.0,0.0,0.0,0.0,0.0,0.0,0.0,0.0,0.0,0.0,0.0,0.0,0.0,0.0,0.0,0.0,0.0,0.0,0.0,0.0,0.0,0.0,0.0,0.0,0.0,0.0,0.0,0.0,0.0,0.0,0.0,0.0,0.0,0.0,0.0,0.0,0.0,0.0,0.0,0.0,0.0,0.0,0.0,0.0,0.0,0.0,0.0,0.0,0.0,0.0,0.0,0.0,0.0,0.0,0.0,0.0,0.0,0.0,0.0,0.0,0.0,0.0,0.0,0.0,0.0,0.0,0.0,0.0,0.0,0.0,0.0,0.0
-4.9790778575697914e-05,0.0001270385255338624,-1.1839505532407202e-05,0.00022384840121958405,-0.00012350862380117178,-9.082387259695679e-05,-0.0001412765559507534,2.6928861188935116e-05,4.676949538406916e-05,0.00010318521526642144,6.478354043792933e-05,-0.0001342808682238683,-7.366204226855189e-05,-0.00011241811444051564,2.9816439564456232e-05,0.0002151225198758766,-0.00012882791634183377,-8.206337952287868e-06,0.00017295111319981515,8.553874067729339e-05,-0.00010010029654949903,7.713014201726764e-05,1.8716838894761167e-05,-5.527595931198448e-05,-0.00022239597456064075,-0.00013111707812640816,4.087155684828758e-05,7.289095810847357e-05,-3.4970704291481525e-05,-0.00021007786563131958,3.39683101628907e-05,-0.00023661523300688714,-0.00010194347123615444,-8.722249185666442e-05,0.00010224747529719025,0.0002119917335221544,5.9657057136064395e-05,-8.598560089012608e-05,2.9545011784648523e-05,-2.2833517505205236e-05,2.465721445332747e-05,7.385397475445643e-05,0.00010372847464168444,-6.702583777951077e-05,-9.022530866786838e-05,0.0001985260023502633,3.900644151144661e-05,3.887284401571378e-05,0.0002490842016413808,-9.385619341628626e-05,-0.00017916230717673898,-2.0585450329235755e-05,7.862120401114225e-05,5.733559373766184e-05,0.000251650606514886,-0.00013674420188181102,0.00020063022384420037,3.0416795198107138e-05,2.7857880922965705e-05,0.00026874407194554806,-5.942057759966701e-05,7.556612217740621e-06,-2.140627202606993e-06,1.8815022428952943e-07,-1.551499735796824e-05,0.00012684283137787133,4.343736236478435e-06,-5.7469995226711035e-05,6.643828237429261e-05,9.283643157687038e-05,-0.00024949421640485525,0.00020589698397088796,1.366829383186996e-05,0.00018389889737591147,-6.515819404739887e-05,-9.220869105774909e-05,3.1070296245161444e-05,-4.271368379704654e-05,-7.738033309578896e-05,-0.00015795906074345112,6.177761679282412e-05,-4.8754369345260784e-05,1.717811028356664e-05,1.0673279575712513e-05,-2.3714141207165085e-05,0.0001699016720522195,0.00014935768558643758,-8.475435606669635e-05,-4.3539901525946334e-05,-4.128666205360787e-06,-1.2951051076015574e-06,-2.4946672056103125e-05,0.00011731825361493975,6.246504199225456e-05,-0.0001651672791922465,-2.47344860326848e-06,0.00019686685118358582,1.7802926777221728e-06,6.143859354779124e-05,3.4564123780000955e-05,-5.372881059884094e-05,9.133099229075015e-05,-1.5094849914021324e-05,1.5409150364575908e-05,9.882731683319435e-05,-8.466866711387411e-05,0.00011306591477477923,2.1743411707575433e-05,-0.00013365164340939373,-0.00011282088235020638,3.863908932544291e-05,-0.00024088501231744885,-5.777111800853163e-05,8.340136446349788e-06,9.624069934943691e-05,1.6941641661105677e-05,-9.039898577611893e-05,0.0001526321575511247,3.081764589296654e-05,-7.954969623824582e-05,-2.517232860554941e-05,3.7530746340053156e-05,0.00018549556261859834,-5.2699109801324084e-05,0.00018624418589752167,6.453466630773619e-05,-0.00015006860485300422,0.00010453821596456692,-0.00018704903777688742,0.00011171249207109213,-5.810230504721403e-05,0.0001649462355999276,2.0747093003592454e-05,-8.458875527139753e-05,0.00018485542386770248,9.888234490063041e-05,-0.00013349061191547662,6.740421667927876e-05,-7.560066296719015e-05,5.476484147948213e-05,-8.197928400477394e-05,-0.0001282250159420073,0.00021168561943341047,-5.5208693083841354e-05,1.1488046766316984e-05,9.59128956310451e-05,-0.00023722714104223996,3.3915181120391935e-05,-5.6979930377565324e-05,-0.0002635141718201339,-3.4641856473172083e-05,-7.924720193841495e-06,5.493548451340757e-05,0.00015684675599914044,-0.00010965085675707087,-3.602818105719052e-05,-0.00011965078010689467,0.000216803076909855,-0.00026423222152516246,-8.813705062493682e-05,0.0002525153977330774,-0.00011013160110451281,0.00012820606934837997,1.4805409591645002e-05,0.00012576216249726713,0.00022506920504383743,0.0001514653122285381,-2.1124453269294463e-05,-9.027191117638722e-05,-5.700856490875594e-05,-0.00014880903472658247,0.00016947025142144412,7.112671937647974e-06,5.0097209168598056e-05,-0.00015967023500707,4.513276508077979e-05,-0.00010956203186651692,0.00016766460612416267,-8.37700554257026e-06,3.061393363168463e-05,-3.426209150347859e-05,-0.00024068675702437758,9.645213867770508e-05,0.00018301211821381003,-1.1011699825758114e-05,-0.00010588022996671498,0.00015582186460960656,8.90379014890641e-05,2.0790401322301477e-05,8.037244697334245e-05,3.7446086935233325e-05,-3.695563646033406e-05,-4.783637268701568e-05,-0.00013031384150963277,-0.00012186705134809017,1.7329182810499333e-05,0.0001322590687777847,-0.0001222013816004619,-9.959156886907294e-05,6.402875442290679e-05,4.959514626534656e-05,-5.596147457254119e-05,6.421861326089129e-05,-0.00014913520135451108,-0.00013524998212233186,3.4799770219251513e-05,-0.00017724947247188538,1.2667977898672689e-05,2.1354851924115792e-05,0.00017648858192842454,-0.00019540362700354308,-0.00010861217742785811,-0.00017285937792621553,1.7907339497469366e-05,2.3832479200791568e-05,0.00017370289424434304,-5.5415614042431116e-05,0.00024125671188812703,-0.00011648147483356297,-9.52877144300146e-06,0.00010334078251617029,0.0002093208022415638,-5.679730020347051e-05,-5.924086144659668e-05,-6.629467407037737e-06,0.00015088882355485111,-1.2077174460500828e-06,0.00015538853767793626,-6.997109449002892e-05,-6.217195914359763e-05,-0.00012956435966771096,3.6912413179379655e-06,3.582193312468007e-05,-0.0001614811335457489,-4.9517566367285326e-05,5.1787701522698626e-05,-5.352432253857842e-06,-6.26112159807235e-05,-0.0001447346730856225,-2.0714745915029198e-05,-4.07234656449873e-05,-0.00013525148096960038,1.3895074516767636e-05,-1.5965593775035813e-05,9.149269317276776e-05,-0.0001255583338206634,-0.00011466036085039377,-6.298732478171587e-05,0.00023873041209299117,-0.0001973065227502957,-8.635936683276668e-05,0.00023729357053525746,2.404175029369071e-05,-0.00011457758228061721,0.00018094273400492966,0.00019600933592300862,7.524573447881266e-05,-0.00015679391799494624,0.0001456818572478369,-0.00024004605074878782,-0.00016077354666776955,-0.00010546521662035957,-9.758381202118471e-05,-0.00011327332322252914,0.00016648814198561013,-2.2923011783859693e-05,-0.00014822914090473205,-1.1673391782096587e-05,-1.602816155354958e-05,6.147575186332688e-05,-4.548122888081707e-05,-0.00016337266424670815,1.264259822164604e-06,-3.3844429708551615e-05,-1.668691766099073e-05,-0.0002010766911553219,0.00011440739035606384,8.528669241059106e-06,-7.931049913167953e-05,2.6122013878193684e-05,-2.152448178094346e-05,-0.0001632937928661704,-0.00018300900410395116,-2.299260268046055e-05,0.0002441460674162954,7.278841803781688e-05,-4.9664598918752745e-05,0.00014808792911935598,-4.1557308577466756e-05,-0.00020470826711971313,3.0478855478577316e-05,3.58380057150498e-05,-4.7835892473813146e-05,0.0002504708245396614,-0.00011575810640351847,2.2515348973684013e-05,0.00021194019063841552,-7.744874164927751e-05,2.195371052948758e-05,-0.00010840566392289475
7.382270996458828e-05,-1.08230660771369e-05,0.000139874973683618,0.00011649572115857154,-9.866962500382215e-05,-6.254437903407961e-05,-4.581117900670506e-05,4.313737008487806e-05,-0.00011821941006928682,-0.00018389067554380745,1.1529115909070242e-05,0.00012861983850598335,0.0002128764899680391,-0.00021121939062140882,-9.175886225420982e-05,-3.6637250104831764e-06,0.00010992492025252432,-1.9586736016208306e-05,0.00011378830822650343,7.777952851029113e-05,0.000105039551272057,-0.00013003322237636894,-0.00018630745762493461,0.00016403502377215773,0.00018130360695067793,0.0001259682612726465,-0.0001016660244204104,0.00017909759480971843,-0.0003043935867026448,8.126660395646468e-05,4.340905070421286e-05,-3.718494190252386e-05,-0.0001711135992081836,8.460369258500577e-07,5.879027594346553e-05,0.00014133693184703588,0.00010257952817482874,2.214116648247e-06,-1.5109681953617837e-05,-0.00016398199659306556,0.00024609253159724176,3.9935741369845346e-05,-9.801996930036694e-05,9.187641990138218e-05,0.00014039028610568494,5.115090971230529e-05,-0.00010918932093773037,7.188488962128758e-05,0.00011597480624914169,1.1885490494023543e-05,-0.00023362685169558972,0.00012485265324357897,-4.933888703817502e-05,-4.063606866111513e-06,-9.316865907749161e-05,0.00019863908528350294,4.8303107178071514e-05,-5.23428971064277e-05,5.2331994083942845e-05,-3.158074468956329e-05,-0.00013200243120081723,-0.00014984265726525337,0.0001360313908662647,2.7708631023415364e-05,-3.381523856660351e-05,0.00016208527085836977,8.221909956773743e-05,-5.5840857385192066e-05,6.046734142728383e-06,6.335076614050195e-05,-0.00010149760782951489,-1.2170917216280941e-05,-0.00024572579422965646,0.0001494547032052651,8.19518681964837e-05,-0.00021426749299280345,-2.7859276087838225e-05,-0.0001411093835486099,0.0001708273048279807,-3.905731500708498e-05,-0.00021550663223024458,-0.00011558266851352528,0.00012019959831377491,0.0003307133156340569,1.5158814676397014e-05,-2.858394873328507e-05,-6.962534098420292e-05,3.4195945772808045e-05,-0.00011091162741649896,7.068197010084987e-05,2.7393318305257708e-05,-5.804422835353762e-05,-6.191273860167712e-05,0.0001443890214432031,6.440500874305144e-05,-7.87470635259524e-05,4.822530536330305e-05,-6.322284025372937e-05,-0.00025577357155270875,1.2838570910389535e-05,-0.00014504864520858973,-1.8571275859358138e-06,-2.665421925485134e-05,-3.900744195561856e-05,-0.00022331812942866236,8.607985364506021e-05,-4.6083569031907246e-05,-2.0340958144515753e-05,7.116362394299358e-05,-2.0364881493151188e-05,-0.00010473137081135064,-3.4473196137696505e-05,0.00027672728174366057,0.00016932887956500053,-1.2427148249116726e-05,0.00010140822996618226,3.292853944003582e-05,2.6114998036064208e-05,4.681914288084954e-05,0.00011438001820351928,-5.300248085404746e-05,0.0001807315566111356,7.906607061158866e-05,0.00017310817202087492,-9.03236650628969e-06,-4.767289647134021e-05,-7.41582625778392e-05,-0.00013378482253756374,-5.684143252437934e-05,-0.0001567318831803277,0.00031694304198026657,3.6407149309525266e-05,2.6995820007869042e-05,0.00025161897065117955,5.654838605551049e-05,-0.00016348851204384118,-0.00024355425557587296,-5.8974539570044726e-05,0.00021936162374913692,8.505548612447456e-05,-4.1482719097984955e-05,0.00014013006875757128,-0.00010203786951024085,-0.00012446475739125162,-9.18900259421207e-05,-0.00011622541205724701,-8.053340570768341e-05,-0.00011443623952800408,-0.0002139794232789427,-1.9430961401667446e-05,-0.0001928317651618272,-0.00011778506450355053,-6.279776425799355e-05,0.00016735585813876241,-9.888828208204359e-05,0.0002680263132788241,-6.9814472226426e-05,5.289281398290768e-05,-0.0002467253361828625,-0.00013195304200053215,-3.1100204068934545e-05,0.00021715578623116016,-1.3648155800183304e-05,3.312380795250647e-05,8.473231719108298e-05,0.00010198082600254565,-9.534671698929742e-05,-0.0001648191100684926,0.00012155138392699882,-0.0002115132228937,-0.00026896281633526087,5.1875078497687355e-05,-0.00011231327516725287,2.0956476873834617e-05,2.6213561795884743e-05,-3.218712663510814e-05,8.253628766397014e-05,6.548032251885161e-05,4.559931767289527e-05,2.1629381080856547e-05,-0.0001229146437253803,0.0002726043458096683,-8.967858593678102e-05,3.497198486002162e-05,0.00014040661335457116,-4.2823219700949267e-05,7.409683166770265e-05,9.365046025777701e-06,-0.00015350441390182823,7.142341928556561e-05,0.00018389086471870542,0.00013636404764838517,-0.00011010048183379695,0.00020578155817929655,0.0001691201323410496,-3.171468733853544e-06,-0.0001212977003888227,0.00012199254706501961,-4.877193714492023e-05,-0.00010246891906717792,-0.00010023573122452945,0.00017647782806307077,3.131937774014659e-05,-0.00018487032502889633,0.00018103502225130796,-0.00013152066094335169,0.00011701024777721614,-0.00011838784848805517,-0.00015963231271598488,-1.3029733054281678e-05,0.00021767956786789,0.00015857005200814456,3.6897617974318564e-06,-0.00011750465637305751,2.4171624318114482e-05,-3.2025745895225555e-05,6.522953481180593e-05,0.00016705543384887278,-1.8671513316803612e-05,0.00016482059436384588,-1.5459230780834332e-05,-0.0001742057065712288,-8.219205483328551e-05,0.00019719656847883016,0.0001604794233571738,-0.00020121347915846854,-5.0350005039945245e-05,0.00016115816833917052,-9.915733971865848e-05,-0.00016197728109546006,0.00013526066322810948,-0.0001541310630273074,-5.248375600785948e-05,-0.00019335495017003268,-6.341155676636845e-05,-5.899184088775655e-06,-0.0001349388185190037,0.00014250943786464632,0.00021673200535587966,0.00011671760876197368,7.182638364611194e-05,6.675962504232302e-05,6.666913395747542e-05,0.0002011540054809302,-1.589405474078376e-05,-9.721284732222557e-05,-7.74219079175964e-05,-0.00015508828801102936,0.00016325169417541474,0.0002494428481440991,1.8920596630778164e-05,2.5561101210769266e-05,-0.0002518758410587907,-0.00014956323138903826,0.00010564466356299818,0.00010767045023385435,-0.00020464442786760628,6.248812132980675e-05,-0.00013991362357046455,-0.00011899181845365092,-4.4741354940924793e-05,-0.00026278538280166686,-7.2633747549843974e-06,-7.424102659570053e-05,7.893082511145622e-05,-2.9984084903844632e-05,0.00021273862512316555,0.00012181665806565434,2.2765272660763003e-05,-0.00023603258887305856,0.00024982370086945593,-8.599265129305422e-05,0.0002116982504958287,0.00012613256694748998,0.00011180470755789429,4.246154639986344e-05,0.0001044682358042337,0.00017191801453009248,-0.00011492418707348406,-3.7859546864638105e-05,5.678386878571473e-05,1.0138920515601058e-05,-0.00027913658414036036,-4.8671270633349195e-05,4.479362542042509e-05,0.00011329511471558362,-1.6684991351212375e-05,0.00019761025032494217,-0.00014497189840767533,0.0001727356284391135,-0.000266507500782609,0.00027089795912615955,7.024033402558416e-05,-0.0002867971488740295,0.0001797829318093136,9.000490535981953e-05,-1.1890359928656835e-05,4.3055624701082706e-05,9.585536645317916e-06,-0.0001468866248615086
0.0,0.0,0.0,0.0,0.0,0.0,0.0,0.0,0.0,0.0,0.0,0.0,0.0,0.0,0.0,0.0,0.0,0.0,0.0,0.0,0.0,0.0,0.0,0.0,0.0,0.0,0.0,0.0,0.0,0.0,0.0,0.0,0.0,0.0,0.0,0.0,0.0,0.0,0.0,0.0,0.0,0.0,0.0,0.0,0.0,0.0,0.0,0.0,0.0,0.0,0.0,0.0,0.0,0.0,0.0,0.0,0.0,0.0,0.0,0.0,0.0,0.0,0.0,0.0,0.0,0.0,0.0,0.0,0.0,0.0,0.0,0.0,0.0,0.0,0.0,0.0,0.0,0.0,0.0,0.0,0.0,0.0,0.0,0.0,0.0,0.0,0.0,0.0,0.0,0.0,0.0,0.0,0.0,0.0,0.0,0.0,0.0,0.0,0.0,0.0,0.0,0.0,0.0,0.0,0.0,0.0,0.0,0.0,0.0,0.0,0.0,0.0,0.0,0.0,0.0,0.0,0.0,0.0,0.0,0.0,0.0,0.0,0.0,0.0,0.0,0.0,0.0,0.0,0.0,0.0,0.0,0.0,0.0,0.0,0.0,0.0,0.0,0.0,0.0,0.0,0.0,0.0,0.0,0.0,0.0,0.0,0.0,0.0,0.0,0.0,0.0,0.0,0.0,0.0,0.0,0.0,0.0,0.0,0.0,0.0,0.0,0.0,0.0,0.0,0.0,0.0,0.0,0.0,0.0,0.0,0.0,0.0,0.0,0.0,0.0,0.0,0.0,0.0,0.0,0.0,0.0,0.0,0.0,0.0,0.0,0.0,0.0,0.0,0.0,0.0,0.0,0.0,0.0,0.0,0.0,0.0,0.0,0.0,0.0,0.0,0.0,0.0,0.0,0.0,0.0,0.0,0.0,0.0,0.0,0.0,0.0,0.0,0.0,0.0,0.0,0.0,0.0,0.0,0.0,0.0,0.0,0.0,0.0,0.0,0.0,0.0,0.0,0.0,0.0,0.0,0.0,0.0,0.0,0.0,0.0,0.0,0.0,0.0,0.0,0.0,0.0,0.0,0.0,0.0,0.0,0.0,0.0,0.0,0.0,0.0,0.0,0.0,0.0,0.0,0.0,0.0,0.0,0.0,0.0,0.0,0.0,0.0,0.0,0.0,0.0,0.0,0.0,0.0,0.0,0.0,0.0,0.0,0.0,0.0,0.0,0.0,0.0,0.0,0.0,0.0,0.0,0.0,0.0,0.0,0.0,0.0,0.0,0.0,0.0,0.0,0.0,0.0,0.0,0.0,0.0,0.0,0.0,0.0,0.0,0.0
0.0,0.0,0.0,0.0,0.0,0.0,0.0,0.0,0.0,0.0,0.0,0.0,0.0,0.0,0.0,0.0,0.0,0.0,0.0,0.0,0.0,0.0,0.0,0.0,0.0,0.0,0.0,0.0,0.0,0.0,0.0,0.0,0.0,0.0,0.0,0.0,0.0,0.0,0.0,0.0,0.0,0.0,0.0,0.0,0.0,0.0,0.0,0.0,0.0,0.0,0.0,0.0,0.0,0.0,0.0,0.0,0.0,0.0,0.0,0.0,0.0,0.0,0.0,0.0,0.0,0.0,0.0,0.0,0.0,0.0,0.0,0.0,0.0,0.0,0.0,0.0,0.0,0.0,0.0,0.0,0.0,0.0,0.0,0.0,0.0,0.0,0.0,0.0,0.0,0.0,0.0,0.0,0.0,0.0,0.0,0.0,0.0,0.0,0.0,0.0,0.0,0.0,0.0,0.0,0.0,0.0,0.0,0.0,0.0,0.0,0.0,0.0,0.0,0.0,0.0,0.0,0.0,0.0,0.0,0.0,0.0,0.0,0.0,0.0,0.0,0.0,0.0,0.0,0.0,0.0,0.0,0.0,0.0,0.0,0.0,0.0,0.0,0.0,0.0,0.0,0.0,0.0,0.0,0.0,0.0,0.0,0.0,0.0,0.0,0.0,0.0,0.0,0.0,0.0,0.0,0.0,0.0,0.0,0.0,0.0,0.0,0.0,0.0,0.0,0.0,0.0,0.0,0.0,0.0,0.0,0.0,0.0,0.0,0.0,0.0,0.0,0.0,0.0,0.0,0.0,0.0,0.0,0.0,0.0,0.0,0.0,0.0,0.0,0.0,0.0,0.0,0.0,0.0,0.0,0.0,0.0,0.0,0.0,0.0,0.0,0.0,0.0,0.0,0.0,0.0,0.0,0.0,0.0,0.0,0.0,0.0,0.0,0.0,0.0,0.0,0.0,0.0,0.0,0.0,0.0,0.0,0.0,0.0,0.0,0.0,0.0,0.0,0.0,0.0,0.0,0.0,0.0,0.0,0.0,0.0,0.0,0.0,0.0,0.0,0.0,0.0,0.0,0.0,0.0,0.0,0.0,0.0,0.0,0.0,0.0,0.0,0.0,0.0,0.0,0.0,0.0,0.0,0.0,0.0,0.0,0.0,0.0,0.0,0.0,0.0,0.0,0.0,0.0,0.0,0.0,0.0,0.0,0.0,0.0,0.0,0.0,0.0,0.0,0.0,0.0,0.0,0.0,0.0,0.0,0.0,0.0,0.0,0.0,0.0,0.0,0.0,0.0,0.0,0.0,0.0,0.0,0.0,0.0,0.0,0.0
0.0,0.0,0.0,0.0,0.0,0.0,0.0,0.0,0.0,0.0,0.0,0.0,0.0,0.0,0.0,0.0,0.0,0.0,0.0,0.0,0.0,0.0,0.0,0.0,0.0,0.0,0.0,0.0,0.0,0.0,0.0,0.0,0.0,0.0,0.0,0.0,0.0,0.0,0.0,0.0,0.0,0.0,0.0,0.0,0.0,0.0,0.0,0.0,0.0,0.0,0.0,0.0,0.0,0.0,0.0,0.0,0.0,0.0,0.0,0.0,0.0,0.0,0.0,0.0,0.0,0.0,0.0,0.0,0.0,0.0,0.0,0.0,0.0,0.0,0.0,0.0,0.0,0.0,0.0,0.0,0.0,0.0,0.0,0.0,0.0,0.0,0.0,0.0,0.0,0.0,0.0,0.0,0.0,0.0,0.0,0.0,0.0,0.0,0.0,0.0,0.0,0.0,0.0,0.0,0.0,0.0,0.0,0.0,0.0,0.0,0.0,0.0,0.0,0.0,0.0,0.0,0.0,0.0,0.0,0.0,0.0,0.0,0.0,0.0,0.0,0.0,0.0,0.0,0.0,0.0,0.0,0.0,0.0,0.0,0.0,0.0,0.0,0.0,0.0,0.0,0.0,0.0,0.0,0.0,0.0,0.0,0.0,0.0,0.0,0.0,0.0,0.0,0.0,0.0,0.0,0.0,0.0,0.0,0.0,0.0,0.0,0.0,0.0,0.0,0.0,0.0,0.0,0.0,0.0,0.0,0.0,0.0,0.0,0.0,0.0,0.0,0.0,0.0,0.0,0.0,0.0,0.0,0.0,0.0,0.0,0.0,0.0,0.0,0.0,0.0,0.0,0.0,0.0,0.0,0.0,0.0,0.0,0.0,0.0,0.0,0.0,0.0,0.0,0.0,0.0,0.0,0.0,0.0,0.0,0.0,0.0,0.0,0.0,0.0,0.0,0.0,0.0,0.0,0.0,0.0,0.0,0.0,0.0,0.0,0.0,0.0,0.0,0.0,0.0,0.0,0.0,0.0,0.0,0.0,0.0,0.0,0.0,0.0,0.0,0.0,0.0,0.0,0.0,0.0,0.0,0.0,0.0,0.0,0.0,0.0,0.0,0.0,0.0,0.0,0.0,0.0,0.0,0.0,0.0,0.0,0.0,0.0,0.0,0.0,0.0,0.0,0.0,0.0,0.0,0.0,0.0,0.0,0.0,0.0,0.0,0.0,0.0,0.0,0.0,0.0,0.0,0.0,0.0,0.0,0.0,0.0,0.0,0.0,0.0,0.0,0.0,0.0,0.0,0.0,0.0,0.0,0.0,0.0,0.0,0.0
0.00012022607188555412,-3.9080510759959e-05,-0.00016210255853366107,0.00010350731827202253,0.00011533271754160523,2.3957202756719198e-05,-2.571375443949364e-05,-0.00012189008975838078,7.534169344580732e-05,0.00010745410509116482,3.208718464975391e-05,-6.055105768609792e-05,-0.00015767437616887037,1.3873354873794597e-05,6.962472980376333e-06,6.700291507399925e-05,6.054250025044894e-05,6.735245005984325e-05,0.00010621265028021298,-5.6418540225422475e-05,1.2145663731644163e-05,0.00012238495583005715,-0.00022421677567763254,-4.115993760933634e-05,8.67214475874789e-05,0.0001395112012687605,-8.578694541938603e-05,-3.438117346377112e-05,-0.00011314334187773056,0.00012011313810944557,5.4931289923842996e-05,-0.00019352043455000967,3.5675962863024324e-05,-4.475149580684956e-05,-2.573298115748912e-05,3.684340481413528e-05,-7.806987559888512e-05,3.4246022551087663e-06,-0.00013260508285384276,-0.00014246918362914585,-4.9079344535130076e-05,-0.00012888532182842027,-0.0001254197741218377,-2.599968865979463e-06,3.908926464646356e-05,-0.00011343380720063578,3.76682371552306e-05,-0.00010106389891006984,-5.6140385822800454e-05,-0.00011356759932823479,-9.243519161827862e-05,-5.884586425963789e-05,2.136038528988138e-05,4.9124214456242044e-05,9.075495472643524e-05,6.089135422371328e-05,0.0001759564838721417,-8.275959407910705e-05,4.039188934257254e-05,-9.895611583488062e-06,-3.3798223739722744e-05,0.0001431188575224951,-9.324403436039574e-05,-4.160993421464809e-05,-4.977168282493949e-05,0.00012602743299794383,-0.0001004475743684452,0.00014761292186449282,1.1757668119116715e-05,9.762896479514893e-05,-8.255807188106701e-05,7.935581197671127e-05,-5.143817179487087e-05,-0.00013360430511966115,-0.0001538471260573715,-1.7217746062669903e-05,-2.1394080249592662e-05,5.8313971749157645e-05,0.00013157760258764029,-0.0001533614849904552,-0.0001303121607634239,-5.555822644964792e-05,-9.618980175218894e-05,6.660359213128686e-05,0.00016928234981605783,2.8322428988758475e-05,0.00017924686835613102,7.638740862603299e-05,-5.500056431628764e-05,-5.2217437769286335e-05,-0.00015547991642961279,-2.1906547772232443e-05,8.962484571384266e-06,2.3078242975316243e-05,0.00012040887122566346,-0.00023145989689510316,0.00010734788884292357,-0.00018234253002447076,3.8986909203231335e-06,6.0400068605304114e-05,4.050709321745671e-05,-0.00015938743126753252,-1.7959726392291486e-05,-0.00010931249016721267,8.012159378267825e-05,-0.00026624442398315296,-1.1014054507541005e-05,-2.964280247397255e-05,0.00020651414160965942,-6.779756768082734e-05,0.0001882152673715609,0.0002749295817920938,-0.00016050073168116796,-0.00021877494145883247,-0.0001277857882087119,-0.00016358974971808493,0.00015875658573349938,6.073688723517989e-05,-0.00019057915051234886,0.00016232520283665508,-1.3231881894171238e-05,-9.135970685747452e-05,-6.70150329824537e-05,-7.666086094104685e-05,6.921327440068126e-06,-9.874592797132209e-05,0.00023051093012327328,-0.00020676832718891092,-0.00011977214126090985,-6.409404886653647e-05,0.0001395860999764409,-8.911882105167024e-05,1.3308104826137424e-05,-6.301012035692111e-06,-7.767494753352366e-05,-6.792831845814362e-05,-0.00010592675516818417,-8.615215665486176e-05,-0.0001525924321867933,-0.00010601706890156493,-0.00015390005864901468,0.0002411101304460317,0.00016516596224391833,-1.9435521608102135e-05,-5.719880573451519e-05,0.0001402040470566135,2.8813621611334383e-05,-8.208655344787985e-06,6.0867292631883174e-05,-0.00013592799405159894,-0.00010084723180625588,-0.0002036539924574754,8.991417962533887e-05,0.00022057836031308398,0.00015105126658454537,0.00028430028760340065,-0.00024248081899713725,0.00012838382463087328,-3.622885515142116e-05,1.5313609765144065e-05,-1.7611804651096463e-05,-0.00017643327009864151,0.00012370599142741412,5.035599770053523e-05,-0.00014961544911784586,-0.00032853033917490393,2.7653120923787355e-05,1.9950275600422174e-05,-7.058383198454976e-05,-6.2398394220508635e-06,-8.081337364274077e-05,1.6640977264614776e-05,-8.46643561089877e-05,4.013012949144468e-05,0.00014272477346821688,-8.048534618865233e-05,-0.00013547585786000127,-4.321410960983485e-05,-1.7470061720814556e-05,0.00012723917825496756,3.352334988449002e-05,-9.024769315146841e-05,0.0001061000696154224,-8.181130397133529e-05,-5.8522342897049384e-05,-8.520444498572033e-05,4.5189626689534634e-06,-4.838270615437068e-05,-0.00011027860455214977,-3.6075362004339695e-05,-5.888493615202606e-05,-0.00015579277533106506,-0.0002133279303961899,1.186604640679434e-05,4.128849468543194e-05,-0.00021793338237330317,-0.00012020467693218961,-0.00010822131298482418,-5.731748530024561e-05,-0.0001712938210403081,-4.76934619655367e-05,0.00010635941816872219,-0.000189972975931596,0.00017306675727013499,6.197109178174287e-05,2.8325554012553766e-05,8.195334885385819e-05,-5.502929298017989e-05,-0.00014372217265190557,0.00011507324597914703,-7.988263450897648e-05,-5.89065020903945e-05,-4.286141484044492e-05,7.604271013406105e-05,8.444103514193557e-05,-0.0001266588042199146,-0.0001575030564708868,1.8108794392901473e-05,-3.5099619708489627e-06,1.7385581941198325e-05,2.3601098291692324e-05,0.00016108925046864897,-0.00011875745258294046,0.00010864847718039528,-1.1824980902019888e-05,-4.896477912552655e-05,-0.000120381855595042,-1.0424751963000745e-05,8.564446034142748e-06,9.153164251074486e-05,-0.00016140479056048207,-1.7822203517425805e-05,-6.0375767134246416e-05,3.242076127207838e-05,2.94301935355179e-05,3.598141665861476e-05,0.0001988072181120515,-0.00012610207613761304,3.3628903111093678e-06,0.0002855971979442984,1.535794240226096e-05,5.6559996664873324e-05,-0.0001275138529308606,0.00016070900710474234,-9.08111069293227e-05,-1.878190823845216e-05,-1.4679888408863917e-05,0.00019870875985361636,-0.00010292609294992872,0.00010259663758915849,6.075710552977398e-05,-0.00011970140258199535,-9.6562802355038e-05,-4.589402306010015e-05,9.057805937118246e-05,-0.00010334642138332129,1.5780758985783905e-05,-9.229614079231396e-05,2.4184948415495455e-05,-0.00019291997159598395,-3.1057354135555215e-05,0.00021262079098960385,0.00011253813136136159,0.0002604031324153766,-4.556495878205169e-05,1.5990444808267057e-06,5.212006544752512e-05,8.497719863953535e-05,-5.903329292777926e-05,4.891182470601052e-06,4.661958064389182e-05,-6.558913355547702e-05,9.482469249633141e-05,0.000119696350338927,1.8124948837794363e-05,-6.823562580393627e-05,0.00019494193111313507,-0.00013296084944158792,-2.9880817237426527e-05,0.00013786465206067078,-2.4659763539602864e-05,-5.400922782428097e-05,0.00010953025230264757,4.880570668319706e-05,0.00016282998694805428,-2.0345796656329185e-05,8.103282925731037e-05,4.1808734749793075e-05,-0.00013385018246481195,-0.00022979541245149449,-0.00011982618161709979,-8.989662092062645e-06,0.00021706755796913058,0.00014140925122774206,5.312542725732783e-05,2.405718987574801e-06,5.969090216240147e-05,-1.1675417681544786e-05,3.145443133689696e-05,8.955442172009498e-05
0.0,0.0,0.0,0.0,0.0,0.0,0.0,0.0,0.0,0.0,0.0,0.0,0.0,0.0,0.0,0.0,0.0,0.0,0.0,0.0,0.0,0.0,0.0,0.0,0.0,0.0,0.0,0.0,0.0,0.0,0.0,0.0,0.0,0.0,0.0,0.0,0.0,0.0,0.0,0.0,0.0,0.0,0.0,0.0,0.0,0.0,0.0,0.0,0.0,0.0,0.0,0.0,0.0,0.0,0.0,0.0,0.0,0.0,0.0,0.0,0.0,0.0,0.0,0.0,0.0,0.0,0.0,0.0,0.0,0.0,0.0,0.0,0.0,0.0,0.0,0.0,0.0,0.0,0.0,0.0,0.0,0.0,0.0,0.0,0.0,0.0,0.0,0.0,0.0,0.0,0.0,0.0,0.0,0.0,0.0,0.0,0.0,0.0,0.0,0.0,0.0,0.0,0.0,0.0,0.0,0.0,0.0,0.0,0.0,0.0,0.0,0.0,0.0,0.0,0.0,0.0,0.0,0.0,0.0,0.0,0.0,0.0,0.0,0.0,0.0,0.0,0.0,0.0,0.0,0.0,0.0,0.0,0.0,0.0,0.0,0.0,0.0,0.0,0.0,0.0,0.0,0.0,0.0,0.0,0.0,0.0,0.0,0.0,0.0,0.0,0.0,0.0,0.0,0.0,0.0,0.0,0.0,0.0,0.0,0.0,0.0,0.0,0.0,0.0,0.0,0.0,0.0,0.0,0.0,0.0,0.0,0.0,0.0,0.0,0.0,0.0,0.0,0.0,0.0,0.0,0.0,0.0,0.0,0.0,0.0,0.0,0.0,0.0,0.0,0.0,0.0,0.0,0.0,0.0,0.0,0.0,0.0,0.0,0.0,0.0,0.0,0.0,0.0,0.0,0.0,0.0,0.0,0.0,0.0,0.0,0.0,0.0,0.0,0.0,0.0,0.0,0.0,0.0,0.0,0.0,0.0,0.0,0.0,0.0,0.0,0.0,0.0,0.0,0.0,0.0,0.0,0.0,0.0,0.0,0.0,0.0,0.0,0.0,0.0,0.0,0.0,0.0,0.0,0.0,0.0,0.0,0.0,0.0,0.0,0.0,0.0,0.0,0.0,0.0,0.0,0.0,0.0,0.0,0.0,0.0,0.0,0.0,0.0,0.0,0.0,0.0,0.0,0.0,0.0,0.0,0.0,0.0,0.0,0.0,0.0,0.0,0.0,0.0,0.0,0.0,0.0,0.0,0.0,0.0,0.0,0.0,0.0,0.0,0.0,0.0,0.0,0.0,0.0,0.0,0.0,0.0,0.0,0.0,0.0,0.0
0.0,0.0,0.0,0.0,0.0,0.0,0.0,0.0,0.0,0.0,0.0,0.0,0.0,0.0,0.0,0.0,0.0,0.0,0.0,0.0,0.0,0.0,0.0,0.0,0.0,0.0,0.0,0.0,0.0,0.0,0.0,0.0,0.0,0.0,0.0,0.0,0.0,0.0,0.0,0.0,0.0,0.0,0.0,0.0,0.0,0.0,0.0,0.0,0.0,0.0,0.0,0.0,0.0,0.0,0.0,0.0,0.0,0.0,0.0,0.0,0.0,0.0,0.0,0.0,0.0,0.0,0.0,0.0,0.0,0.0,0.0,0.0,0.0,0.0,0.0,0.0,0.0,0.0,0.0,0.0,0.0,0.0,0.0,0.0,0.0,0.0,0.0,0.0,0.0,0.0,0.0,0.0,0.0,0.0,0.0,0.0,0.0,0.0,0.0,0.0,0.0,0.0,0.0,0.0,0.0,0.0,0.0,0.0,0.0,0.0,0.0,0.0,0.0,0.0,0.0,0.0,0.0,0.0,0.0,0.0,0.0,0.0,0.0,0.0,0.0,0.0,0.0,0.0,0.0,0.0,0.0,0.0,0.0,0.0,0.0,0.0,0.0,0.0,0.0,0.0,0.0,0.0,0.0,0.0,0.0,0.0,0.0,0.0,0.0,0.0,0.0,0.0,0.0,0.0,0.0,0.0,0.0,0.0,0.0,0.0,0.0,0.0,0.0,0.0,0.0,0.0,0.0,0.0,0.0,0.0,0.0,0.0,0.0,0.0,0.0,0.0,0.0,0.0,0.0,0.0,0.0,0.0,0.0,0.0,0.0,0.0,0.0,0.0,0.0,0.0,0.0,0.0,0.0,0.0,0.0,0.0,0.0,0.0,0.0,0.0,0.0,0.0,0.0,0.0,0.0,0.0,0.0,0.0,0.0,0.0,0.0,0.0,0.0,0.0,0.0,0.0,0.0,0.0,0.0,0.0,0.0,0.0,0.0,0.0,0.0,0.0,0.0,0.0,0.0,0.0,0.0,0.0,0.0,0.0,0.0,0.0,0.0,0.0,0.0,0.0,0.0,0.0,0.0,0.0,0.0,0.0,0.0,0.0,0.0,0.0,0.0,0.0,0.0,0.0,0.0,0.0,0.0,0.0,0.0,0.0,0.0,0.0,0.0,0.0,0.0,0.0,0.0,0.0,0.0,0.0,0.0,0.0,0.0,0.0,0.0,0.0,0.0,0.0,0.0,0.0,0.0,0.0,0.0,0.0,0.0,0.0,0.0,0.0,0.0,0.0,0.0,0.0,0.0,0.0,0.0,0.0,0.0,0.0,0.0,0.0
0.00021700521756429225,-9.588376087776851e-06,1.6627967852400616e-05,-0.00012579571921378374,9.16871867957525e-05,4.740439908346161e-05,-6.816831592004746e-05,1.2844533557654358e-05,-5.653340122080408e-05,0.00020980759290978312,-0.00014305568765848875,0.0003417771658860147,0.00029171007918193936,0.00011763374641304836,-6.248590125323972e-07,0.00024551842943765223,0.0003393395454622805,-1.501972019468667e-05,-0.00022236812219489366,-0.00023068347945809364,-0.00013646016304846853,0.00033739194623194635,0.00022991883452050388,-0.00016605010023340583,0.0001569127052789554,0.00020345991651993245,-8.207783685065806e-05,9.709971345728263e-05,7.032709254417568e-05,-0.00010932838631561026,-0.0002638920850586146,0.00019359301950316876,-0.00016440464241895825,0.00021656656463164836,-0.0003630582068581134,-2.2562951926374808e-05,-9.778252569958568e-05,-1.1163982890138868e-05,-6.198939081514254e-05,-8.847372373566031e-05,0.00010206633305642754,-0.00031263724667951465,-3.217143239453435e-05,-2.2734720914741047e-05,0.00031192207825370133,0.00022856621944811195,-2.4968364868982462e-06,1.6837258272062172e-06,2.4116208805935457e-05,-4.438588075572625e-05,-6.45434411126189e-05,7.190775795606896e-05,0.00012410373892635107,-0.0002749956038314849,-0.0003939995658583939,4.907943730358966e-05,-0.00021413617650978267,0.00026160190463997424,6.229573773453012e-05,0.0003192960866726935,-0.00012691311712842435,0.00012016000982839614,0.0001346903300145641,0.00013056497846264392,-5.220706225372851e-05,-0.0002652984985616058,9.654412133386359e-05,0.0003137753519695252,-0.0002053299394901842,0.0003300193347968161,0.00010410331742605194,0.00012303865514695644,4.835295840166509e-05,8.164723840309307e-05,0.0003517133882269263,0.00010066376125905663,2.5319550331914797e-05,1.012197299132822e-05,-3.86381616408471e-05,0.00027196452720090747,-0.00015137993614189327,-1.1612300113483798e-05,-0.00010111857409356162,-2.7994807169307023e-05,7.282301521627232e-05,-0.00012059701839461923,6.666663102805614e-05,-7.180139800766483e-05,-0.00010101898806169629,0.00016099723870866,-0.0001118632935686037,0.00015716049529146403,-5.9459842304931954e-05,0.0003986960800830275,-0.00016395172860939056,3.4695982321863994e-05,-0.0001795182324713096,-0.00018182577332481742,1.0127022505912464e-05,0.00028639769880101085,-4.811891267308965e-05,-1.2649964446609374e-05,-0.000215070802369155,-9.931332169799134e-05,-6.926473724888638e-05,4.645856824936345e-05,-0.00022656729561276734,6.67074418743141e-05,1.1284910215181299e-05,1.1257739060965832e-05,-1.3619603123515844e-05,-0.00017742975614964962,-0.00015474387328140438,-0.00015595363220199943,-0.00010238160757580772,0.00034610109287314117,7.717686821706593e-05,6.917214341228828e-05,0.0002475379151292145,7.669402111787349e-05,-4.8601395974401385e-05,1.4930738871044014e-05,-6.025857510394417e-05,8.156246622093022e-05,-1.2815629816032015e-05,-0.00035731351817958057,-0.00026066365535371006,-0.00018273548630531877,0.00012864844757132232,-7.083478067215765e-06,0.00012474815594032407,-0.00013292371295392513,0.0004133839684072882,-0.0001523928513051942,-0.0002606081252451986,0.00023750726541038603,-0.0002001196116907522,0.00035092607140541077,0.00019384371989872307,0.00023326490190811455,-8.391626761294901e-05,-0.0003560998884495348,-4.848002572543919e-05,3.97589938074816e-05,-6.488271083071595e-06,0.00026399397756904364,-9.980033792089671e-05,-0.00012576847802847624,0.00019385306222829968,-3.7299367249943316e-05,1.8766593711916357e-05,-0.0003141196211799979,0.00011449172598076984,0.00019666191656142473,0.00010129617294296622,-0.0002457858936395496,0.0004152374458499253,-0.00022046008962206542,-2.4330431187991053e-05,-0.0002787781704682857,-0.0001392379926983267,6.935815326869488e-05,-0.0002674541901797056,-0.0001480408536735922,-0.00017178374400828034,-6.201024370966479e-05,3.5787066735792905e-05,1.6879255781532265e-05,0.00012892758240923285,0.00037118891486898065,-0.00018582935445010662,0.0001748477079672739,0.00023633021919522434,-1.5891127986833453e-05,2.3538761524832807e-05,-8.814014290692285e-05,-5.7868732255883515e-05,0.0003515922580845654,0.00019970035646110773,3.0962004530010745e-05,-0.00016560303629375994,0.0002947842003777623,1.4855402696412057e-05,-0.00024301618395838886,0.00018813305359799415,-0.00030761747620999813,-0.00014308742538560182,-0.00028503756038844585,0.00019766522746067494,-0.00015297759091481566,-0.00015052071830723435,6.474319889093749e-06,3.987217496614903e-05,-0.00010663049761205912,0.00025547767290845513,5.66905919185956e-06,-0.00023141935525927693,-8.229597005993128e-05,4.000773697043769e-05,-9.995585423894227e-05,6.324979767668992e-05,0.0002497125824447721,9.257928468286991e-05,0.000333009083988145,-0.00023672467796131968,-9.279722689825576e-06,0.00017797820328269154,-3.844484672299586e-05,2.4818475139909424e-05,0.00011552253272384405,1.8430132513458375e-06,0.00027695950120687485,-0.0001175820580101572,0.00013598128862213343,0.00011722125054802746,-0.00020921268151141703,-0.00028326554456725717,0.0001054975000442937,-0.0002367980923736468,-3.936580105801113e-05,0.00023269560188055038,0.00019095565949101,0.0003224631946068257,-5.897138180444017e-05,-5.146187686477788e-05,0.00015630559937562793,-0.00024817418307065964,0.0001459722116123885,-0.00043173032463528216,8.294938743347302e-05,3.5135104553774e-05,-0.0001362301263725385,-4.796492066816427e-05,-0.00017168064368888736,-1.1453434126451612e-05,5.847933061886579e-05,-0.0002489977632649243,8.779577910900116e-05,-0.00011911350156879053,0.0002848756266757846,-8.0710684414953e-05,0.00014671011012978852,0.00012086019705748186,-1.747855822031852e-05,-0.0001897769107017666,0.00035063165705651045,0.0003021105658262968,4.956224438501522e-05,0.00027395287179388106,0.00012328362208791077,-7.432840357068926e-05,-8.184915350284427e-05,-3.7075581076351227e-06,-0.00018890608043875545,-5.774083183496259e-05,1.801348480512388e-05,-7.45974903111346e-05,0.00021195827866904438,7.644703873666003e-05,-0.0002434777416056022,7.241145067382604e-05,-0.0001685912866378203,-1.318673457717523e-05,-0.00040367996552959085,-6.480480078607798e-05,3.385182571946643e-05,-0.0002610132214613259,0.00022856327996123582,0.0003041374438907951,0.00017493592167738825,5.879946183995344e-05,0.00026296076248399913,0.0004180588584858924,5.8676065236795694e-05,2.6244659238727763e-05,0.0003290016611572355,3.836628457065672e-05,-8.154607348842546e-05,-0.00018395444203633815,-6.264923285925761e-05,5.7676345022628084e-05,0.0001493139425292611,-0.0001566687715239823,-0.0002337805781280622,-0.0002114834205713123,0.00024292751913890243,0.0002201372990384698,5.681690163328312e-05,0.0003583648067433387,0.00024789466988295317,5.28722011949867e-05,-0.00019159348448738456,0.0003495601413305849,-9.742656402522698e-05,-9.17022189241834e-05,0.00014026461576577276,0.00017403304809704423,0.0002475218498148024,0.0001737946440698579,-4.054477176396176e-05
0.0,0.0,0.0,0.0,0.0,0.0,0.0,0.0,0.0,0.0,0.0,0.0,0.0,0.0,0.0,0.0,0.0,0.0,0.0,0.0,0.0,0.0,0.0,0.0,0.0,0.0,0.0,0.0,0.0,0.0,0.0,0.0,0.0,0.0,0.0,0.0,0.0,0.0,0.0,0.0,0.0,0.0,0.0,0.0,0.0,0.0,0.0,0.0,0.0,0.0,0.0,0.0,0.0,0.0,0.0,0.0,0.0,0.0,0.0,0.0,0.0,0.0,0.0,0.0,0.0,0.0,0.0,0.0,0.0,0.0,0.0,0.0,0.0,0.0,0.0,0.0,0.0,0.0,0.0,0.0,0.0,0.0,0.0,0.0,0.0,0.0,0.0,0.0,0.0,0.0,0.0,0.0,0.0,0.0,0.0,0.0,0.0,0.0,0.0,0.0,0.0,0.0,0.0,0.0,0.0,0.0,0.0,0.0,0.0,0.0,0.0,0.0,0.0,0.0,0.0,0.0,0.0,0.0,0.0,0.0,0.0,0.0,0.0,0.0,0.0,0.0,0.0,0.0,0.0,0.0,0.0,0.0,0.0,0.0,0.0,0.0,0.0,0.0,0.0,0.0,0.0,0.0,0.0,0.0,0.0,0.0,0.0,0.0,0.0,0.0,0.0,0.0,0.0,0.0,0.0,0.0,0.0,0.0,0.0,0.0,0.0,0.0,0.0,0.0,0.0,0.0,0.0,0.0,0.0,0.0,0.0,0.0,0.0,0.0,0.0,0.0,0.0,0.0,0.0,0.0,0.0,0.0,0.0,0.0,0.0,0.0,0.0,0.0,0.0,0.0,0.0,0.0,0.0,0.0,0.0,0.0,0.0,0.0,0.0,0.0,0.0,0.0,0.0,0.0,0.0,0.0,0.0,0.0,0.0,0.0,0.0,0.0,0.0,0.0,0.0,0.0,0.0,0.0,0.0,0.0,0.0,0.0,0.0,0.0,0.0,0.0,0.0,0.0,0.0,0.0,0.0,0.0,0.0,0.0,0.0,0.0,0.0,0.0,0.0,0.0,0.0,0.0,0.0,0.0,0.0,0.0,0.0,0.0,0.0,0.0,0.0,0.0,0.0,0.0,0.0,0.0,0.0,0.0,0.0,0.0,0.0,0.0,0.0,0.0,0.0,0.0,0.0,0.0,0.0,0.0,0.0,0.0,0.0,0.0,0.0,0.0,0.0,0.0,0.0,0.0,0.0,0.0,0.0,0.0,0.0,0.0,0.0,0.0,0.0,0.0,0.0,0.0,0.0,0.0,0.0,0.0,0.0,0.0,0.0,0.0
0.0,0.0,0.0,0.0,0.0,0.0,0.0,0.0,0.0,0.0,0.0,0.0,0.0,0.0,0.0,0.0,0.0,0.0,0.0,0.0,0.0,0.0,0.0,0.0,0.0,0.0,0.0,0.0,0.0,0.0,0.0,0.0,0.0,0.0,0.0,0.0,0.0,0.0,0.0,0.0,0.0,0.0,0.0,0.0,0.0,0.0,0.0,0.0,0.0,0.0,0.0,0.0,0.0,0.0,0.0,0.0,0.0,0.0,0.0,0.0,0.0,0.0,0.0,0.0,0.0,0.0,0.0,0.0,0.0,0.0,0.0,0.0,0.0,0.0,0.0,0.0,0.0,0.0,0.0,0.0,0.0,0.0,0.0,0.0,0.0,0.0,0.0,0.0,0.0,0.0,0.0,0.0,0.0,0.0,0.0,0.0,0.0,0.0,0.0,0.0,0.0,0.0,0.0,0.0,0.0,0.0,0.0,0.0,0.0,0.0,0.0,0.0,0.0,0.0,0.0,0.0,0.0,0.0,0.0,0.0,0.0,0.0,0.0,0.0,0.0,0.0,0.0,0.0,0.0,0.0,0.0,0.0,0.0,0.0,0.0,0.0,0.0,0.0,0.0,0.0,0.0,0.0,0.0,0.0,0.0,0.0,0.0,0.0,0.0,0.0,0.0,0.0,0.0,0.0,0.0,0.0,0.0,0.0,0.0,0.0,0.0,0.0,0.0,0.0,0.0,0.0,0.0,0.0,0.0,0.0,0.0,0.0,0.0,0.0,0.0,0.0,0.0,0.0,0.0,0.0,0.0,0.0,0.0,0.0,0.0,0.0,0.0,0.0,0.0,0.0,0.0,0.0,0.0,0.0,0.0,0.0,0.0,0.0,0.0,0.0,0.0,0.0,0.0,0.0,0.0,0.0,0.0,0.0,0.0,0.0,0.0,0.0,0.0,0.0,0.0,0.0,0.0,0.0,0.0,0.0,0.0,0.0,0.0,0.0,0.0,0.0,0.0,0.0,0.0,0.0,0.0,0.0,0.0,0.0,0.0,0.0,0.0,0.0,0.0,0.0,0.0,0.0,0.0,0.0,0.0,0.0,0.0,0.0,0.0,0.0,0.0,0.0,0.0,0.0,0.0,0.0,0.0,0.0,0.0,0.0,0.0,0.0,0.0,0.0,0.0,0.0,0.0,0.0,0.0,0.0,0.0,0.0,0.0,0.0,0.0,0.0,0.0,0.0,0.0,0.0,0.0,0.0,0.0,0.0,0.0,0.0,0.0,0.0,0.0,0.0,0.0,0.0,0.0,0.0,0.0,0.0,0.0,0.0,0.0,0.0
0.0,0.0,0.0,0.0,0.0,0.0,0.0,0.0,0.0,0.0,0.0,0.0,0.0,0.0,0.0,0.0,0.0,0.0,0.0,0.0,0.0,0.0,0.0,0.0,0.0,0.0,0.0,0.0,0.0,0.0,0.0,0.0,0.0,0.0,0.0,0.0,0.0,0.0,0.0,0.0,0.0,0.0,0.0,0.0,0.0,0.0,0.0,0.0,0.0,0.0,0.0,0.0,0.0,0.0,0.0,0.0,0.0,0.0,0.0,0.0,0.0,0.0,0.0,0.0,0.0,0.0,0.0,0.0,0.0,0.0,0.0,0.0,0.0,0.0,0.0,0.0,0.0,0.0,0.0,0.0,0.0,0.0,0.0,0.0,0.0,0.0,0.0,0.0,0.0,0.0,0.0,0.0,0.0,0.0,0.0,0.0,0.0,0.0,0.0,0.0,0.0,0.0,0.0,0.0,0.0,0.0,0.0,0.0,0.0,0.0,0.0,0.0,0.0,0.0,0.0,0.0,0.0,0.0,0.0,0.0,0.0,0.0,0.0,0.0,0.0,0.0,0.0,0.0,0.0,0.0,0.0,0.0,0.0,0.0,0.0,0.0,0.0,0.0,0.0,0.0,0.0,0.0,0.0,0.0,0.0,0.0,0.0,0.0,0.0,0.0,0.0,0.0,0.0,0.0,0.0,0.0,0.0,0.0,0.0,0.0,0.0,0.0,0.0,0.0,0.0,0.0,0.0,0.0,0.0,0.0,0.0,0.0,0.0,0.0,0.0,0.0,0.0,0.0,0.0,0.0,0.0,0.0,0.0,0.0,0.0,0.0,0.0,0.0,0.0,0.0,0.0,0.0,0.0,0.0,0.0,0.0,0.0,0.0,0.0,0.0,0.0,0.0,0.0,0.0,0.0,0.0,0.0,0.0,0.0,0.0,0.0,0.0,0.0,0.0,0.0,0.0,0.0,0.0,0.0,0.0,0.0,0.0,0.0,0.0,0.0,0.0,0.0,0.0,0.0,0.0,0.0,0.0,0.0,0.0,0.0,0.0,0.0,0.0,0.0,0.0,0.0,0.0,0.0,0.0,0.0,0.0,0.0,0.0,0.0,0.0,0.0,0.0,0.0,0.0,0.0,0.0,0.0,0.0,0.0,0.0,0.0,0.0,0.0,0.0,0.0,0.0,0.0,0.0,0.0,0.0,0.0,0.0,0.0,0.0,0.0,0.0,0.0,0.0,0.0,0.0,0.0,0.0,0.0,0.0,0.0,0.0,0.0,0.0,0.0,0.0,0.0,0.0,0.0,0.0,0.0,0.0,0.0,0.0,0.0,0.0
0.0,0.0,0.0,0.0,0.0,0.0,0.0,0.0,0.0,0.0,0.0,0.0,0.0,0.0,0.0,0.0,0.0,0.0,0.0,0.0,0.0,0.0,0.0,0.0,0.0,0.0,0.0,0.0,0.0,0.0,0.0,0.0,0.0,0.0,0.0,0.0,0.0,0.0,0.0,0.0,0.0,0.0,0.0,0.0,0.0,0.0,0.0,0.0,0.0,0.0,0.0,0.0,0.0,0.0,0.0,0.0,0.0,0.0,0.0,0.0,0.0,0.0,0.0,0.0,0.0,0.0,0.0,0.0,0.0,0.0,0.0,0.0,0.0,0.0,0.0,0.0,0.0,0.0,0.0,0.0,0.0,0.0,0.0,0.0,0.0,0.0,0.0,0.0,0.0,0.0,0.0,0.0,0.0,0.0,0.0,0.0,0.0,0.0,0.0,0.0,0.0,0.0,0.0,0.0,0.0,0.0,0.0,0.0,0.0,0.0,0.0,0.0,0.0,0.0,0.0,0.0,0.0,0.0,0.0,0.0,0.0,0.0,0.0,0.0,0.0,0.0,0.0,0.0,0.0,0.0,0.0,0.0,0.0,0.0,0.0,0.0,0.0,0.0,0.0,0.0,0.0,0.0,0.0,0.0,0.0,0.0,0.0,0.0,0.0,0.0,0.0,0.0,0.0,0.0,0.0,0.0,0.0,0.0,0.0,0.0,0.0,0.0,0.0,0.0,0.0,0.0,0.0,0.0,0.0,0.0,0.0,0.0,0.0,0.0,0.0,0.0,0.0,0.0,0.0,0.0,0.0,0.0,0.0,0.0,0.0,0.0,0.0,0.0,0.0,0.0,0.0,0.0,0.0,0.0,0.0,0.0,0.0,0.0,0.0,0.0,0.0,0.0,0.0,0.0,0.0,0.0,0.0,0.0,0.0,0.0,0.0,0.0,0.0,0.0,0.0,0.0,0.0,0.0,0.0,0.0,0.0,0.0,0.0,0.0,0.0,0.0,0.0,0.0,0.0,0.0,0.0,0.0,0.0,0.0,0.0,0.0,0.0,0.0,0.0,0.0,0.0,0.0,0.0,0.0,0.0,0.0,0.0,0.0,0.0,0.0,0.0,0.0,0.0,0.0,0.0,0.0,0.0,0.0,0.0,0.0,0.0,0.0,0.0,0.0,0.0,0.0,0.0,0.0,0.0,0.0,0.0,0.0,0.0,0.0,0.0,0.0,0.0,0.0,0.0,0.0,0.0,0.0,0.0,0.0,0.0,0.0,0.0,0.0,0.0,0.0,0.0,0.0,0.0,0.0,0.0,0.0,0.0,0.0,0.0,0.0
0.0,0.0,0.0,0.0,0.0,0.0,0.0,0.0,0.0,0.0,0.0,0.0,0.0,0.0,0.0,0.0,0.0,0.0,0.0,0.0,0.0,0.0,0.0,0.0,0.0,0.0,0.0,0.0,0.0,0.0,0.0,0.0,0.0,0.0,0.0,0.0,0.0,0.0,0.0,0.0,0.0,0.0,0.0,0.0,0.0,0.0,0.0,0.0,0.0,0.0,0.0,0.0,0.0,0.0,0.0,0.0,0.0,0.0,0.0,0.0,0.0,0.0,0.0,0.0,0.0,0.0,0.0,0.0,0.0,0.0,0.0,0.0,0.0,0.0,0.0,0.0,0.0,0.0,0.0,0.0,0.0,0.0,0.0,0.0,0.0,0.0,0.0,0.0,0.0,0.0,0.0,0.0,0.0,0.0,0.0,0.0,0.0,0.0,0.0,0.0,0.0,0.0,0.0,0.0,0.0,0.0,0.0,0.0,0.0,0.0,0.0,0.0,0.0,0.0,0.0,0.0,0.0,0.0,0.0,0.0,0.0,0.0,0.0,0.0,0.0,0.0,0.0,0.0,0.0,0.0,0.0,0.0,0.0,0.0,0.0,0.0,0.0,0.0,0.0,0.0,0.0,0.0,0.0,0.0,0.0,0.0,0.0,0.0,0.0,0.0,0.0,0.0,0.0,0.0,0.0,0.0,0.0,0.0,0.0,0.0,0.0,0.0,0.0,0.0,0.0,0.0,0.0,0.0,0.0,0.0,0.0,0.0,0.0,0.0,0.0,0.0,0.0,0.0,0.0,0.0,0.0,0.0,0.0,0.0,0.0,0.0,0.0,0.0,0.0,0.0,0.0,0.0,0.0,0.0,0.0,0.0,0.0,0.0,0.0,0.0,0.0,0.0,0.0,0.0,0.0,0.0,0.0,0.0,0.0,0.0,0.0,0.0,0.0,0.0,0.0,0.0,0.0,0.0,0.0,0.0,0.0,0.0,0.0,0.0,0.0,0.0,0.0,0.0,0.0,0.0,0.0,0.0,0.0,0.0,0.0,0.0,0.0,0.0,0.0,0.0,0.0,0.0,0.0,0.0,0.0,0.0,0.0,0.0,0.0,0.0,0.0,0.0,0.0,0.0,0.0,0.0,0.0,0.0,0.0,0.0,0.0,0.0,0.0,0.0,0.0,0.0,0.0,0.0,0.0,0.0,0.0,0.0,0.0,0.0,0.0,0.0,0.0,0.0,0.0,0.0,0.0,0.0,0.0,0.0,0.0,0.0,0.0,0.0,0.0,0.0,0.0,0.0,0.0,0.0,0.0,0.0,0.0,0.0,0.0,0.0
0.00021700521756429225,-9.588376087776851e-06,1.6627967852400616e-05,-0.00012579571921378374,9.16871867957525e-05,4.740439908346161e-05,-6.816831592004746e-05,1.2844533557654358e-05,-5.653340122080408e-05,0.00020980759290978312,-0.00014305568765848875,0.0003417771658860147,0.00029171007918193936,0.00011763374641304836,-6.248590125323972e-07,0.00024551842943765223,0.0003393395454622805,-1.501972019468667e-05,-0.00022236812219489366,-0.00023068347945809364,-0.00013646016304846853,0.00033739194623194635,0.00022991883452050388,-0.00016605010023340583,0.0001569127052789554,0.00020345991651993245,-8.207783685065806e-05,9.709971345728263e-05,7.032709254417568e-05,-0.00010932838631561026,-0.0002638920850586146,0.00019359301950316876,-0.00016440464241895825,0.00021656656463164836,-0.0003630582068581134,-2.2562951926374808e-05,-9.778252569958568e-05,-1.1163982890138868e-05,-6.198939081514254e-05,-8.847372373566031e-05,0.00010206633305642754,-0.00031263724667951465,-3.217143239453435e-05,-2.2734720914741047e-05,0.00031192207825370133,0.00022856621944811195,-2.4968364868982462e-06,1.6837258272062172e-06,2.4116208805935457e-05,-4.438588075572625e-05,-6.45434411126189e-05,7.190775795606896e-05,0.00012410373892635107,-0.0002749956038314849,-0.0003939995658583939,4.907943730358966e-05,-0.00021413617650978267,0.00026160190463997424,6.229573773453012e-05,0.0003192960866726935,-0.00012691311712842435,0.00012016000982839614,0.0001346903300145641,0.00013056497846264392,-5.220706225372851e-05,-0.0002652984985616058,9.654412133386359e-05,0.0003137753519695252,-0.0002053299394901842,0.0003300193347968161,0.00010410331742605194,0.00012303865514695644,4.835295840166509e-05,8.164723840309307e-05,0.0003517133882269263,0.00010066376125905663,2.5319550331914797e-05,1.012197299132822e-05,-3.86381616408471e-05,0.00027196452720090747,-0.00015137993614189327,-1.1612300113483798e-05,-0.00010111857409356162,-2.7994807169307023e-05,7.282301521627232e-05,-0.00012059701839461923,6.666663102805614e-05,-7.180139800766483e-05,-0.00010101898806169629,0.00016099723870866,-0.0001118632935686037,0.00015716049529146403,-5.9459842304931954e-05,0.0003986960800830275,-0.00016395172860939056,3.4695982321863994e-05,-0.0001795182324713096,-0.00018182577332481742,1.0127022505912464e-05,0.00028639769880101085,-4.811891267308965e-05,-1.2649964446609374e-05,-0.000215070802369155,-9.931332169799134e-05,-6.926473724888638e-05,4.645856824936345e-05,-0.00022656729561276734,6.67074418743141e-05,1.1284910215181299e-05,1.1257739060965832e-05,-1.3619603123515844e-05,-0.00017742975614964962,-0.00015474387328140438,-0.00015595363220199943,-0.00010238160757580772,0.00034610109287314117,7.717686821706593e-05,6.917214341228828e-05,0.0002475379151292145,7.669402111787349e-05,-4.8601395974401385e-05,1.4930738871044014e-05,-6.025857510394417e-05,8.156246622093022e-05,-1.2815629816032015e-05,-0.00035731351817958057,-0.00026066365535371006,-0.00018273548630531877,0.00012864844757132232,-7.083478067215765e-06,0.00012474815594032407,-0.00013292371295392513,0.0004133839684072882,-0.0001523928513051942,-0.0002606081252451986,0.00023750726541038603,-0.0002001196116907522,0.00035092607140541077,0.00019384371989872307,0.00023326490190811455,-8.391626761294901e-05,-0.0003560998884495348,-4.848002572543919e-05,3.97589938074816e-05,-6.488271083071595e-06,0.00026399397756904364,-9.980033792089671e-05,-0.00012576847802847624,0.00019385306222829968,-3.7299367249943316e-05,1.8766593711916357e-05,-0.0003141196211799979,0.00011449172598076984,0.00019666191656142473,0.00010129617294296622,-0.0002457858936395496,0.0004152374458499253,-0.00022046008962206542,-2.4330431187991053e-05,-0.0002787781704682857,-0.0001392379926983267,6.935815326869488e-05,-0.0002674541901797056,-0.0001480408536735922,-0.00017178374400828034,-6.201024370966479e-05,3.5787066735792905e-05,1.6879255781532265e-05,0.00012892758240923285,0.00037118891486898065,-0.00018582935445010662,0.0001748477079672739,0.00023633021919522434,-1.5891127986833453e-05,2.3538761524832807e-05,-8.814014290692285e-05,-5.7868732255883515e-05,0.0003515922580845654,0.00019970035646110773,3.0962004530010745e-05,-0.00016560303629375994,0.0002947842003777623,1.4855402696412057e-05,-0.00024301618395838886,0.00018813305359799415,-0.00030761747620999813,-0.00014308742538560182,-0.00028503756038844585,0.00019766522746067494,-0.00015297759091481566,-0.00015052071830723435,6.474319889093749e-06,3.987217496614903e-05,-0.00010663049761205912,0.00025547767290845513,5.66905919185956e-06,-0.00023141935525927693,-8.229597005993128e-05,4.000773697043769e-05,-9.995585423894227e-05,6.324979767668992e-05,0.0002497125824447721,9.257928468286991e-05,0.000333009083988145,-0.00023672467796131968,-9.279722689825576e-06,0.00017797820328269154,-3.844484672299586e-05,2.4818475139909424e-05,0.00011552253272384405,1.8430132513458375e-06,0.00027695950120687485,-0.0001175820580101572,0.00013598128862213343,0.00011722125054802746,-0.00020921268151141703,-0.00028326554456725717,0.0001054975000442937,-0.0002367980923736468,-3.936580105801113e-05,0.00023269560188055038,0.00019095565949101,0.0003224631946068257,-5.897138180444017e-05,-5.146187686477788e-05,0.00015630559937562793,-0.00024817418307065964,0.0001459722116123885,-0.00043173032463528216,8.294938743347302e-05,3.5135104553774e-05,-0.0001362301263725385,-4.796492066816427e-05,-0.00017168064368888736,-1.1453434126451612e-05,5.847933061886579e-05,-0.0002489977632649243,8.779577910900116e-05,-0.00011911350156879053,0.0002848756266757846,-8.0710684414953e-05,0.00014671011012978852,0.00012086019705748186,-1.747855822031852e-05,-0.0001897769107017666,0.00035063165705651045,0.0003021105658262968,4.956224438501522e-05,0.00027395287179388106,0.00012328362208791077,-7.432840357068926e-05,-8.184915350284427e-05,-3.7075581076351227e-06,-0.00018890608043875545,-5.774083183496259e-05,1.801348480512388e-05,-7.45974903111346e-05,0.00021195827866904438,7.644703873666003e-05,-0.0002434777416056022,7.241145067382604e-05,-0.0001685912866378203,-1.318673457717523e-05,-0.00040367996552959085,-6.480480078607798e-05,3.385182571946643e-05,-0.0002610132214613259,0.00022856327996123582,0.0003041374438907951,0.00017493592167738825,5.879946183995344e-05,0.00026296076248399913,0.0004180588584858924,5.8676065236795694e-05,2.6244659238727763e-05,0.0003290016611572355,3.836628457065672e-05,-8.154607348842546e-05,-0.00018395444203633815,-6.264923285925761e-05,5.7676345022628084e-05,0.0001493139425292611,-0.0001566687715239823,-0.0002337805781280622,-0.0002114834205713123,0.00024292751913890243,0.0002201372990384698,5.681690163328312e-05,0.0003583648067433387,0.00024789466988295317,5.28722011949867e-05,-0.00019159348448738456,0.0003495601413305849,-9.742656402522698e-05,-9.17022189241834e-05,0.00014026461576577276,0.00017403304809704423,0.0002475218498148024,0.0001737946440698579,-4.054477176396176e-05
0.0,0.0,0.0,0.0,0.0,0.0,0.0,0.0,0.0,0.0,0.0,0.0,0.0,0.0,0.0,0.0,0.0,0.0,0.0,0.0,0.0,0.0,0.0,0.0,0.0,0.0,0.0,0.0,0.0,0.0,0.0,0.0,0.0,0.0,0.0,0.0,0.0,0.0,0.0,0.0,0.0,0.0,0.0,0.0,0.0,0.0,0.0,0.0,0.0,0.0,0.0,0.0,0.0,0.0,0.0,0.0,0.0,0.0,0.0,0.0,0.0,0.0,0.0,0.0,0.0,0.0,0.0,0.0,0.0,0.0,0.0,0.0,0.0,0.0,0.0,0.0,0.0,0.0,0.0,0.0,0.0,0.0,0.0,0.0,0.0,0.0,0.0,0.0,0.0,0.0,0.0,0.0,0.0,0.0,0.0,0.0,0.0,0.0,0.0,0.0,0.0,0.0,0.0,0.0,0.0,0.0,0.0,0.0,0.0,0.0,0.0,0.0,0.0,0.0,0.0,0.0,0.0,0.0,0.0,0.0,0.0,0.0,0.0,0.0,0.0,0.0,0.0,0.0,0.0,0.0,0.0,0.0,0.0,0.0,0.0,0.0,0.0,0.0,0.0,0.0,0.0,0.0,0.0,0.0,0.0,0.0,0.0,0.0,0.0,0.0,0.0,0.0,0.0,0.0,0.0,0.0,0.0,0.0,0.0,0.0,0.0,0.0,0.0,0.0,0.0,0.0,0.0,0.0,0.0,0.0,0.0,0.0,0.0,0.0,0.0,0.0,0.0,0.0,0.0,0.0,0.0,0.0,0.0,0.0,0.0,0.0,0.0,0.0,0.0,0.0,0.0,0.0,0.0,0.0,0.0,0.0,0.0,0.0,0.0,0.0,0.0,0.0,0.0,0.0,0.0,0.0,0.0,0.0,0.0,0.0,0.0,0.0,0.0,0.0,0.0,0.0,0.0,0.0,0.0,0.0,0.0,0.0,0.0,0.0,0.0,0.0,0.0,0.0,0.0,0.0,0.0,0.0,0.0,0.0,0.0,0.0,0.0,0.0,0.0,0.0,0.0,0.0,0.0,0.0,0.0,0.0,0.0,0.0,0.0,0.0,0.0,0.0,0.0,0.0,0.0,0.0,0.0,0.0,0.0,0.0,0.0,0.0,0.0,0.0,0.0,0.0,0.0,0.0,0.0,0.0,0.0,0.0,0.0,0.0,0.0,0.0,0.0,0.0,0.0,0.0,0.0,0.0,0.0,0.0,0.0,0.0,0.0,0.0,0.0,0.0,0.0,0.0,0.0,0.0,0.0,0.0,0.0,0.0,0.0,0.0
